digraph Tree {
node [shape=box] ;
0 [label="mountain away <= 0.5\nentropy = 1.442\nsamples = 3559\nvalue = [1865, 1106, 588]"] ;
1 [label="realtonyburgess dagodfather907 <= 0.5\nentropy = 1.382\nsamples = 3153\nvalue = [1865, 700, 588]"] ;
0 -> 1 [labeldistance=2.5, labelangle=45, headlabel="True"] ;
2 [label="near <= 0.5\nentropy = 1.48\nsamples = 2666\nvalue = [1378, 700, 588]"] ;
1 -> 2 ;
3 [label="say bho <= 0.5\nentropy = 1.557\nsamples = 2232\nvalue = [944, 700, 588]"] ;
2 -> 3 ;
4 [label="911 <= 0.5\nentropy = 1.521\nsamples = 2088\nvalue = [944, 700, 444]"] ;
3 -> 4 ;
5 [label="attention maga <= 0.5\nentropy = 1.542\nsamples = 1961\nvalue = [817, 700, 444]"] ;
4 -> 5 ;
6 [label="thejtlewis realdonaldtrump <= 0.5\nentropy = 1.554\nsamples = 1859\nvalue = [715, 700, 444]"] ;
5 -> 6 ;
7 [label="15 <= 0.5\nentropy = 1.568\nsamples = 1602\nvalue = [527, 639, 436]"] ;
6 -> 7 ;
8 [label="energy <= 0.5\nentropy = 1.577\nsamples = 1521\nvalue = [527, 558, 436]"] ;
7 -> 8 ;
9 [label="interesting <= 0.5\nentropy = 1.566\nsamples = 1464\nvalue = [527, 558, 379]"] ;
8 -> 9 ;
10 [label="realdonaldtrump cancer <= 0.5\nentropy = 1.549\nsamples = 1408\nvalue = [527, 555, 326]"] ;
9 -> 10 ;
11 [label="texas potus <= 0.5\nentropy = 1.555\nsamples = 1360\nvalue = [527, 507, 326]"] ;
10 -> 11 ;
12 [label="montelwilliams <= 0.5\nentropy = 1.543\nsamples = 1331\nvalue = [527, 507, 297]"] ;
11 -> 12 ;
13 [label="election <= 0.5\nentropy = 1.53\nsamples = 1306\nvalue = [527, 507, 272]"] ;
12 -> 13 ;
14 [label="realdonaldtrump qualifications <= 0.5\nentropy = 1.535\nsamples = 1269\nvalue = [490, 507, 272]"] ;
13 -> 14 ;
15 [label="entropy = 1.54\nsamples = 1235\nvalue = [490, 473, 272]"] ;
14 -> 15 ;
16 [label="entropy = 0.0\nsamples = 34\nvalue = [0, 34, 0]"] ;
14 -> 16 ;
17 [label="entropy = 0.0\nsamples = 37\nvalue = [37, 0, 0]"] ;
13 -> 17 ;
18 [label="entropy = 0.0\nsamples = 25\nvalue = [0, 0, 25]"] ;
12 -> 18 ;
19 [label="entropy = 0.0\nsamples = 29\nvalue = [0, 0, 29]"] ;
11 -> 19 ;
20 [label="entropy = 0.0\nsamples = 48\nvalue = [0, 48, 0]"] ;
10 -> 20 ;
21 [label="trumptr <= 0.5\nentropy = 0.301\nsamples = 56\nvalue = [0, 3, 53]"] ;
9 -> 21 ;
22 [label="entropy = 0.0\nsamples = 53\nvalue = [0, 0, 53]"] ;
21 -> 22 ;
23 [label="entropy = 0.0\nsamples = 3\nvalue = [0, 3, 0]"] ;
21 -> 23 ;
24 [label="entropy = 0.0\nsamples = 57\nvalue = [0, 0, 57]"] ;
8 -> 24 ;
25 [label="entropy = 0.0\nsamples = 81\nvalue = [0, 81, 0]"] ;
7 -> 25 ;
26 [label="2 potus <= 0.5\nentropy = 0.978\nsamples = 257\nvalue = [188, 61, 8]"] ;
6 -> 26 ;
27 [label="dangerous job <= 0.5\nentropy = 0.822\nsamples = 231\nvalue = [188, 35, 8]"] ;
26 -> 27 ;
28 [label="thing <= 0.5\nentropy = 0.668\nsamples = 216\nvalue = [188, 20, 8]"] ;
27 -> 28 ;
29 [label="lindseygrahamsc whats <= 0.5\nentropy = 0.485\nsamples = 205\nvalue = [188, 12, 5]"] ;
28 -> 29 ;
30 [label="bizwomen4trump <= 0.5\nentropy = 0.429\nsamples = 202\nvalue = [188, 9, 5]"] ;
29 -> 30 ;
31 [label="retweet <= 0.5\nentropy = 0.363\nsamples = 199\nvalue = [188, 6, 5]"] ;
30 -> 31 ;
32 [label="real americans <= 0.5\nentropy = 0.287\nsamples = 196\nvalue = [188, 4, 4]"] ;
31 -> 32 ;
33 [label="providing <= 0.5\nentropy = 0.428\nsamples = 117\nvalue = [109, 4, 4]"] ;
32 -> 33 ;
34 [label="entropy = 0.773\nsamples = 52\nvalue = [44, 4, 4]"] ;
33 -> 34 ;
35 [label="entropy = 0.0\nsamples = 65\nvalue = [65, 0, 0]"] ;
33 -> 35 ;
36 [label="entropy = 0.0\nsamples = 79\nvalue = [79, 0, 0]"] ;
32 -> 36 ;
37 [label="entropy = 0.918\nsamples = 3\nvalue = [0, 2, 1]"] ;
31 -> 37 ;
38 [label="entropy = 0.0\nsamples = 3\nvalue = [0, 3, 0]"] ;
30 -> 38 ;
39 [label="entropy = 0.0\nsamples = 3\nvalue = [0, 3, 0]"] ;
29 -> 39 ;
40 [label="lindseygrahamsc whats <= 0.5\nentropy = 0.845\nsamples = 11\nvalue = [0, 8, 3]"] ;
28 -> 40 ;
41 [label="marines usmc <= 0.5\nentropy = 0.954\nsamples = 8\nvalue = [0, 5, 3]"] ;
40 -> 41 ;
42 [label="dad <= 0.5\nentropy = 1.0\nsamples = 6\nvalue = [0, 3, 3]"] ;
41 -> 42 ;
43 [label="god <= 0.5\nentropy = 0.811\nsamples = 4\nvalue = [0, 1, 3]"] ;
42 -> 43 ;
44 [label="entropy = 0.0\nsamples = 2\nvalue = [0, 0, 2]"] ;
43 -> 44 ;
45 [label="entropy = 1.0\nsamples = 2\nvalue = [0, 1, 1]"] ;
43 -> 45 ;
46 [label="entropy = 0.0\nsamples = 2\nvalue = [0, 2, 0]"] ;
42 -> 46 ;
47 [label="entropy = 0.0\nsamples = 2\nvalue = [0, 2, 0]"] ;
41 -> 47 ;
48 [label="entropy = 0.0\nsamples = 3\nvalue = [0, 3, 0]"] ;
40 -> 48 ;
49 [label="entropy = 0.0\nsamples = 15\nvalue = [0, 15, 0]"] ;
27 -> 49 ;
50 [label="entropy = 0.0\nsamples = 26\nvalue = [0, 26, 0]"] ;
26 -> 50 ;
51 [label="entropy = 0.0\nsamples = 102\nvalue = [102, 0, 0]"] ;
5 -> 51 ;
52 [label="entropy = 0.0\nsamples = 127\nvalue = [127, 0, 0]"] ;
4 -> 52 ;
53 [label="entropy = 0.0\nsamples = 144\nvalue = [0, 0, 144]"] ;
3 -> 53 ;
54 [label="entropy = 0.0\nsamples = 434\nvalue = [434, 0, 0]"] ;
2 -> 54 ;
55 [label="entropy = 0.0\nsamples = 487\nvalue = [487, 0, 0]"] ;
1 -> 55 ;
56 [label="entropy = 0.0\nsamples = 406\nvalue = [0, 406, 0]"] ;
0 -> 56 [labeldistance=2.5, labelangle=-45, headlabel="False"] ;
}
