digraph Tree {
node [shape=box] ;
0 [label="great <= 0.5\nentropy = 1.55\nsamples = 809\nvalue = [313, 308, 188]"] ;
1 [label="good <= 0.5\nentropy = 1.553\nsamples = 789\nvalue = [313, 288, 188]"] ;
0 -> 1 [labeldistance=2.5, labelangle=45, headlabel="True"] ;
2 [label="illegal <= 0.5\nentropy = 1.554\nsamples = 775\nvalue = [313, 274, 188]"] ;
1 -> 2 ;
3 [label="deep <= 0.5\nentropy = 1.548\nsamples = 764\nvalue = [313, 273, 178]"] ;
2 -> 3 ;
4 [label="crazy <= 0.5\nentropy = 1.552\nsamples = 751\nvalue = [300, 273, 178]"] ;
3 -> 4 ;
5 [label="sick <= 0.5\nentropy = 1.545\nsamples = 741\nvalue = [300, 272, 169]"] ;
4 -> 5 ;
6 [label="live <= 0.5\nentropy = 1.539\nsamples = 734\nvalue = [300, 272, 162]"] ;
5 -> 6 ;
7 [label="new <= 0.5\nentropy = 1.541\nsamples = 724\nvalue = [300, 262, 162]"] ;
6 -> 7 ;
8 [label="love <= 0.5\nentropy = 1.537\nsamples = 706\nvalue = [300, 249, 157]"] ;
7 -> 8 ;
9 [label="evil <= 0.5\nentropy = 1.537\nsamples = 697\nvalue = [300, 240, 157]"] ;
8 -> 9 ;
10 [label="hard <= 0.5\nentropy = 1.532\nsamples = 691\nvalue = [300, 240, 151]"] ;
9 -> 10 ;
11 [label="entropy = 1.525\nsamples = 683\nvalue = [300, 239, 144]"] ;
10 -> 11 ;
12 [label="entropy = 0.544\nsamples = 8\nvalue = [0, 1, 7]"] ;
10 -> 12 ;
13 [label="entropy = 0.0\nsamples = 6\nvalue = [0, 0, 6]"] ;
9 -> 13 ;
14 [label="entropy = 0.0\nsamples = 9\nvalue = [0, 9, 0]"] ;
8 -> 14 ;
15 [label="times local <= 0.5\nentropy = 0.852\nsamples = 18\nvalue = [0, 13, 5]"] ;
7 -> 15 ;
16 [label="trillion <= 0.5\nentropy = 0.696\nsamples = 16\nvalue = [0, 13, 3]"] ;
15 -> 16 ;
17 [label="hour <= 0.5\nentropy = 0.371\nsamples = 14\nvalue = [0, 13, 1]"] ;
16 -> 17 ;
18 [label="entropy = 0.0\nsamples = 13\nvalue = [0, 13, 0]"] ;
17 -> 18 ;
19 [label="entropy = 0.0\nsamples = 1\nvalue = [0, 0, 1]"] ;
17 -> 19 ;
20 [label="entropy = 0.0\nsamples = 2\nvalue = [0, 0, 2]"] ;
16 -> 20 ;
21 [label="entropy = 0.0\nsamples = 2\nvalue = [0, 0, 2]"] ;
15 -> 21 ;
22 [label="entropy = 0.0\nsamples = 10\nvalue = [0, 10, 0]"] ;
6 -> 22 ;
23 [label="entropy = 0.0\nsamples = 7\nvalue = [0, 0, 7]"] ;
5 -> 23 ;
24 [label="e <= 0.5\nentropy = 0.469\nsamples = 10\nvalue = [0, 1, 9]"] ;
4 -> 24 ;
25 [label="entropy = 0.0\nsamples = 9\nvalue = [0, 0, 9]"] ;
24 -> 25 ;
26 [label="entropy = 0.0\nsamples = 1\nvalue = [0, 1, 0]"] ;
24 -> 26 ;
27 [label="entropy = 0.0\nsamples = 13\nvalue = [13, 0, 0]"] ;
3 -> 27 ;
28 [label="sense <= 0.5\nentropy = 0.439\nsamples = 11\nvalue = [0, 1, 10]"] ;
2 -> 28 ;
29 [label="entropy = 0.0\nsamples = 10\nvalue = [0, 0, 10]"] ;
28 -> 29 ;
30 [label="entropy = 0.0\nsamples = 1\nvalue = [0, 1, 0]"] ;
28 -> 30 ;
31 [label="entropy = 0.0\nsamples = 14\nvalue = [0, 14, 0]"] ;
1 -> 31 ;
32 [label="entropy = 0.0\nsamples = 20\nvalue = [0, 20, 0]"] ;
0 -> 32 [labeldistance=2.5, labelangle=-45, headlabel="False"] ;
}
