digraph Tree {
node [shape=box] ;
0 [label="great <= 0.5\nentropy = 1.55\nsamples = 809\nvalue = [313, 308, 188]"] ;
1 [label="good <= 0.5\nentropy = 1.553\nsamples = 789\nvalue = [313, 288, 188]"] ;
0 -> 1 [labeldistance=2.5, labelangle=45, headlabel="True"] ;
2 [label="illegal <= 0.5\nentropy = 1.554\nsamples = 775\nvalue = [313, 274, 188]"] ;
1 -> 2 ;
3 [label="deep <= 0.5\nentropy = 1.548\nsamples = 764\nvalue = [313, 273, 178]"] ;
2 -> 3 ;
4 [label="crazy <= 0.5\nentropy = 1.552\nsamples = 751\nvalue = [300, 273, 178]"] ;
3 -> 4 ;
5 [label="sick <= 0.5\nentropy = 1.545\nsamples = 741\nvalue = [300, 272, 169]"] ;
4 -> 5 ;
6 [label="live <= 0.5\nentropy = 1.539\nsamples = 734\nvalue = [300, 272, 162]"] ;
5 -> 6 ;
7 [label="new <= 0.5\nentropy = 1.541\nsamples = 724\nvalue = [300, 262, 162]"] ;
6 -> 7 ;
8 [label="love <= 0.5\nentropy = 1.537\nsamples = 706\nvalue = [300, 249, 157]"] ;
7 -> 8 ;
9 [label="evil <= 0.5\nentropy = 1.537\nsamples = 697\nvalue = [300, 240, 157]"] ;
8 -> 9 ;
10 [label="hard <= 0.5\nentropy = 1.532\nsamples = 691\nvalue = [300, 240, 151]"] ;
9 -> 10 ;
11 [label="job <= 0.5\nentropy = 1.525\nsamples = 683\nvalue = [300, 239, 144]"] ;
10 -> 11 ;
12 [label="backfiretrump <= 0.5\nentropy = 1.517\nsamples = 670\nvalue = [300, 233, 137]"] ;
11 -> 12 ;
13 [label="really <= 0.5\nentropy = 1.524\nsamples = 653\nvalue = [284, 233, 136]"] ;
12 -> 13 ;
14 [label="pathetic <= 0.5\nentropy = 1.522\nsamples = 641\nvalue = [284, 223, 134]"] ;
13 -> 14 ;
15 [label="trying <= 0.5\nentropy = 1.516\nsamples = 636\nvalue = [284, 223, 129]"] ;
14 -> 15 ;
16 [label="hate <= 0.5\nentropy = 1.511\nsamples = 632\nvalue = [284, 223, 125]"] ;
15 -> 16 ;
17 [label="military <= 0.5\nentropy = 1.506\nsamples = 628\nvalue = [284, 223, 121]"] ;
16 -> 17 ;
18 [label="attempt <= 0.5\nentropy = 1.499\nsamples = 622\nvalue = [284, 222, 116]"] ;
17 -> 18 ;
19 [label="fake <= 0.5\nentropy = 1.493\nsamples = 618\nvalue = [284, 222, 112]"] ;
18 -> 19 ;
20 [label="entropy = 1.486\nsamples = 614\nvalue = [284, 222, 108]"] ;
19 -> 20 ;
21 [label="entropy = 0.0\nsamples = 4\nvalue = [0, 0, 4]"] ;
19 -> 21 ;
22 [label="entropy = 0.0\nsamples = 4\nvalue = [0, 0, 4]"] ;
18 -> 22 ;
23 [label="entropy = 0.65\nsamples = 6\nvalue = [0, 1, 5]"] ;
17 -> 23 ;
24 [label="entropy = 0.0\nsamples = 4\nvalue = [0, 0, 4]"] ;
16 -> 24 ;
25 [label="entropy = 0.0\nsamples = 4\nvalue = [0, 0, 4]"] ;
15 -> 25 ;
26 [label="entropy = 0.0\nsamples = 5\nvalue = [0, 0, 5]"] ;
14 -> 26 ;
27 [label="entropy = 0.65\nsamples = 12\nvalue = [0, 10, 2]"] ;
13 -> 27 ;
28 [label="suffering <= 0.5\nentropy = 0.323\nsamples = 17\nvalue = [16, 0, 1]"] ;
12 -> 28 ;
29 [label="entropy = 0.592\nsamples = 7\nvalue = [6, 0, 1]"] ;
28 -> 29 ;
30 [label="entropy = 0.0\nsamples = 10\nvalue = [10, 0, 0]"] ;
28 -> 30 ;
31 [label="person <= 0.5\nentropy = 0.996\nsamples = 13\nvalue = [0, 6, 7]"] ;
11 -> 31 ;
32 [label="entropy = 0.544\nsamples = 8\nvalue = [0, 1, 7]"] ;
31 -> 32 ;
33 [label="entropy = 0.0\nsamples = 5\nvalue = [0, 5, 0]"] ;
31 -> 33 ;
34 [label="entropy = 0.544\nsamples = 8\nvalue = [0, 1, 7]"] ;
10 -> 34 ;
35 [label="entropy = 0.0\nsamples = 6\nvalue = [0, 0, 6]"] ;
9 -> 35 ;
36 [label="entropy = 0.0\nsamples = 9\nvalue = [0, 9, 0]"] ;
8 -> 36 ;
37 [label="maga <= 0.5\nentropy = 0.852\nsamples = 18\nvalue = [0, 13, 5]"] ;
7 -> 37 ;
38 [label="entropy = 0.98\nsamples = 12\nvalue = [0, 7, 5]"] ;
37 -> 38 ;
39 [label="entropy = 0.0\nsamples = 6\nvalue = [0, 6, 0]"] ;
37 -> 39 ;
40 [label="entropy = 0.0\nsamples = 10\nvalue = [0, 10, 0]"] ;
6 -> 40 ;
41 [label="entropy = 0.0\nsamples = 7\nvalue = [0, 0, 7]"] ;
5 -> 41 ;
42 [label="entropy = 0.469\nsamples = 10\nvalue = [0, 1, 9]"] ;
4 -> 42 ;
43 [label="entropy = 0.0\nsamples = 13\nvalue = [13, 0, 0]"] ;
3 -> 43 ;
44 [label="entropy = 0.439\nsamples = 11\nvalue = [0, 1, 10]"] ;
2 -> 44 ;
45 [label="entropy = 0.0\nsamples = 14\nvalue = [0, 14, 0]"] ;
1 -> 45 ;
46 [label="entropy = 0.0\nsamples = 20\nvalue = [0, 20, 0]"] ;
0 -> 46 [labeldistance=2.5, labelangle=-45, headlabel="False"] ;
}
