digraph Tree {
node [shape=box] ;
0 [label="great <= 0.5\nentropy = 1.55\nsamples = 809\nvalue = [313, 308, 188]"] ;
1 [label="good <= 0.5\nentropy = 1.553\nsamples = 789\nvalue = [313, 288, 188]"] ;
0 -> 1 [labeldistance=2.5, labelangle=45, headlabel="True"] ;
2 [label="illegal <= 0.5\nentropy = 1.554\nsamples = 777\nvalue = [313, 276, 188]"] ;
1 -> 2 ;
3 [label="crazy <= 0.5\nentropy = 1.547\nsamples = 766\nvalue = [313, 275, 178]"] ;
2 -> 3 ;
4 [label="live <= 0.5\nentropy = 1.54\nsamples = 755\nvalue = [313, 274, 168]"] ;
3 -> 4 ;
5 [label="trumptrain <= 0.5\nentropy = 1.54\nsamples = 740\nvalue = [313, 260, 167]"] ;
4 -> 5 ;
6 [label="hard <= 0.5\nentropy = 1.552\nsamples = 684\nvalue = [273, 249, 162]"] ;
5 -> 6 ;
7 [label="new <= 0.5\nentropy = 1.545\nsamples = 675\nvalue = [273, 248, 154]"] ;
6 -> 7 ;
8 [label="sick <= 0.5\nentropy = 1.542\nsamples = 658\nvalue = [273, 236, 149]"] ;
7 -> 8 ;
9 [label="evil <= 0.5\nentropy = 1.537\nsamples = 652\nvalue = [273, 236, 143]"] ;
8 -> 9 ;
10 [label="dangerous <= 0.5\nentropy = 1.53\nsamples = 646\nvalue = [273, 236, 137]"] ;
9 -> 10 ;
11 [label="bad <= 0.5\nentropy = 1.523\nsamples = 640\nvalue = [273, 236, 131]"] ;
10 -> 11 ;
12 [label="shooting <= 0.5\nentropy = 1.516\nsamples = 634\nvalue = [273, 236, 125]"] ;
11 -> 12 ;
13 [label="entropy = 1.521\nsamples = 624\nvalue = [263, 236, 125]"] ;
12 -> 13 ;
14 [label="entropy = 0.0\nsamples = 10\nvalue = [10, 0, 0]"] ;
12 -> 14 ;
15 [label="entropy = 0.0\nsamples = 6\nvalue = [0, 0, 6]"] ;
11 -> 15 ;
16 [label="entropy = 0.0\nsamples = 6\nvalue = [0, 0, 6]"] ;
10 -> 16 ;
17 [label="entropy = 0.0\nsamples = 6\nvalue = [0, 0, 6]"] ;
9 -> 17 ;
18 [label="entropy = 0.0\nsamples = 6\nvalue = [0, 0, 6]"] ;
8 -> 18 ;
19 [label="nuclear new <= 0.5\nentropy = 0.874\nsamples = 17\nvalue = [0, 12, 5]"] ;
7 -> 19 ;
20 [label="qanon <= 0.5\nentropy = 0.722\nsamples = 15\nvalue = [0, 12, 3]"] ;
19 -> 20 ;
21 [label="york times <= 0.5\nentropy = 0.845\nsamples = 11\nvalue = [0, 8, 3]"] ;
20 -> 21 ;
22 [label="entropy = 0.764\nsamples = 9\nvalue = [0, 7, 2]"] ;
21 -> 22 ;
23 [label="entropy = 1.0\nsamples = 2\nvalue = [0, 1, 1]"] ;
21 -> 23 ;
24 [label="entropy = 0.0\nsamples = 4\nvalue = [0, 4, 0]"] ;
20 -> 24 ;
25 [label="entropy = 0.0\nsamples = 2\nvalue = [0, 0, 2]"] ;
19 -> 25 ;
26 [label="qanon <= 0.5\nentropy = 0.503\nsamples = 9\nvalue = [0, 1, 8]"] ;
6 -> 26 ;
27 [label="entropy = 0.0\nsamples = 7\nvalue = [0, 0, 7]"] ;
26 -> 27 ;
28 [label="entropy = 1.0\nsamples = 2\nvalue = [0, 1, 1]"] ;
26 -> 28 ;
29 [label="trumptrain maga <= 0.5\nentropy = 1.119\nsamples = 56\nvalue = [40, 11, 5]"] ;
5 -> 29 ;
30 [label="support <= 0.5\nentropy = 0.967\nsamples = 52\nvalue = [40, 9, 3]"] ;
29 -> 30 ;
31 [label="gop <= 0.5\nentropy = 0.898\nsamples = 50\nvalue = [40, 7, 3]"] ;
30 -> 31 ;
32 [label="rolling <= 0.5\nentropy = 0.785\nsamples = 48\nvalue = [40, 6, 2]"] ;
31 -> 32 ;
33 [label="makeamericagreatagain <= 0.5\nentropy = 0.705\nsamples = 46\nvalue = [39, 6, 1]"] ;
32 -> 33 ;
34 [label="maga trumptrain <= 0.5\nentropy = 0.592\nsamples = 42\nvalue = [36, 6, 0]"] ;
33 -> 34 ;
35 [label="rev trumptrain <= 0.5\nentropy = 0.661\nsamples = 35\nvalue = [29, 6, 0]"] ;
34 -> 35 ;
36 [label="entropy = 0.75\nsamples = 28\nvalue = [22, 6, 0]"] ;
35 -> 36 ;
37 [label="entropy = 0.0\nsamples = 7\nvalue = [7, 0, 0]"] ;
35 -> 37 ;
38 [label="entropy = 0.0\nsamples = 7\nvalue = [7, 0, 0]"] ;
34 -> 38 ;
39 [label="liberals liberallogic <= 0.5\nentropy = 0.811\nsamples = 4\nvalue = [3, 0, 1]"] ;
33 -> 39 ;
40 [label="entropy = 1.0\nsamples = 2\nvalue = [1, 0, 1]"] ;
39 -> 40 ;
41 [label="entropy = 0.0\nsamples = 2\nvalue = [2, 0, 0]"] ;
39 -> 41 ;
42 [label="entropy = 1.0\nsamples = 2\nvalue = [1, 0, 1]"] ;
32 -> 42 ;
43 [label="entropy = 1.0\nsamples = 2\nvalue = [0, 1, 1]"] ;
31 -> 43 ;
44 [label="entropy = 0.0\nsamples = 2\nvalue = [0, 2, 0]"] ;
30 -> 44 ;
45 [label="doing <= 0.5\nentropy = 1.0\nsamples = 4\nvalue = [0, 2, 2]"] ;
29 -> 45 ;
46 [label="entropy = 1.0\nsamples = 2\nvalue = [0, 1, 1]"] ;
45 -> 46 ;
47 [label="entropy = 1.0\nsamples = 2\nvalue = [0, 1, 1]"] ;
45 -> 47 ;
48 [label="episode <= 0.5\nentropy = 0.353\nsamples = 15\nvalue = [0, 14, 1]"] ;
4 -> 48 ;
49 [label="maga <= 0.5\nentropy = 0.439\nsamples = 11\nvalue = [0, 10, 1]"] ;
48 -> 49 ;
50 [label="ans drone <= 0.5\nentropy = 0.592\nsamples = 7\nvalue = [0, 6, 1]"] ;
49 -> 50 ;
51 [label="news <= 0.5\nentropy = 0.722\nsamples = 5\nvalue = [0, 4, 1]"] ;
50 -> 51 ;
52 [label="entropy = 0.918\nsamples = 3\nvalue = [0, 2, 1]"] ;
51 -> 52 ;
53 [label="entropy = 0.0\nsamples = 2\nvalue = [0, 2, 0]"] ;
51 -> 53 ;
54 [label="entropy = 0.0\nsamples = 2\nvalue = [0, 2, 0]"] ;
50 -> 54 ;
55 [label="entropy = 0.0\nsamples = 4\nvalue = [0, 4, 0]"] ;
49 -> 55 ;
56 [label="entropy = 0.0\nsamples = 4\nvalue = [0, 4, 0]"] ;
48 -> 56 ;
57 [label="maxine waters <= 0.5\nentropy = 0.439\nsamples = 11\nvalue = [0, 1, 10]"] ;
3 -> 57 ;
58 [label="entropy = 0.0\nsamples = 9\nvalue = [0, 0, 9]"] ;
57 -> 58 ;
59 [label="entropy = 1.0\nsamples = 2\nvalue = [0, 1, 1]"] ;
57 -> 59 ;
60 [label="mollie tibbetts <= 0.5\nentropy = 0.439\nsamples = 11\nvalue = [0, 1, 10]"] ;
2 -> 60 ;
61 [label="buildthatwall <= 0.5\nentropy = 0.592\nsamples = 7\nvalue = [0, 1, 6]"] ;
60 -> 61 ;
62 [label="entropy = 0.811\nsamples = 4\nvalue = [0, 1, 3]"] ;
61 -> 62 ;
63 [label="entropy = 0.0\nsamples = 3\nvalue = [0, 0, 3]"] ;
61 -> 63 ;
64 [label="entropy = 0.0\nsamples = 4\nvalue = [0, 0, 4]"] ;
60 -> 64 ;
65 [label="entropy = 0.0\nsamples = 12\nvalue = [0, 12, 0]"] ;
1 -> 65 ;
66 [label="entropy = 0.0\nsamples = 20\nvalue = [0, 20, 0]"] ;
0 -> 66 [labeldistance=2.5, labelangle=-45, headlabel="False"] ;
}
