digraph Tree {
node [shape=box] ;
0 [label="great <= 0.5\nentropy = 1.55\nsamples = 810\nvalue = [314, 308, 188]"] ;
1 [label="illegal <= 0.5\nentropy = 1.552\nsamples = 792\nvalue = [314, 290, 188]"] ;
0 -> 1 [labeldistance=2.5, labelangle=45, headlabel="True"] ;
2 [label="good <= 0.5\nentropy = 1.545\nsamples = 781\nvalue = [314, 290, 177]"] ;
1 -> 2 ;
3 [label="live <= 0.5\nentropy = 1.546\nsamples = 767\nvalue = [314, 276, 177]"] ;
2 -> 3 ;
4 [label="bad <= 0.5\nentropy = 1.546\nsamples = 752\nvalue = [314, 263, 175]"] ;
3 -> 4 ;
5 [label="evil <= 0.5\nentropy = 1.539\nsamples = 744\nvalue = [314, 263, 167]"] ;
4 -> 5 ;
6 [label="jail <= 0.5\nentropy = 1.533\nsamples = 737\nvalue = [314, 263, 160]"] ;
5 -> 6 ;
7 [label="new <= 0.5\nentropy = 1.527\nsamples = 730\nvalue = [314, 263, 153]"] ;
6 -> 7 ;
8 [label="dangerous <= 0.5\nentropy = 1.522\nsamples = 713\nvalue = [314, 251, 148]"] ;
7 -> 8 ;
9 [label="crazy <= 0.5\nentropy = 1.516\nsamples = 707\nvalue = [314, 251, 142]"] ;
8 -> 9 ;
10 [label="american <= 0.5\nentropy = 1.507\nsamples = 699\nvalue = [314, 250, 135]"] ;
9 -> 10 ;
11 [label="sick <= 0.5\nentropy = 1.517\nsamples = 676\nvalue = [295, 246, 135]"] ;
10 -> 11 ;
12 [label="entropy = 1.511\nsamples = 671\nvalue = [295, 246, 130]"] ;
11 -> 12 ;
13 [label="entropy = 0.0\nsamples = 5\nvalue = [0, 0, 5]"] ;
11 -> 13 ;
14 [label="coup <= 0.5\nentropy = 0.667\nsamples = 23\nvalue = [19, 4, 0]"] ;
10 -> 14 ;
15 [label="entropy = 0.918\nsamples = 12\nvalue = [8, 4, 0]"] ;
14 -> 15 ;
16 [label="entropy = 0.0\nsamples = 11\nvalue = [11, 0, 0]"] ;
14 -> 16 ;
17 [label="entropy = 0.544\nsamples = 8\nvalue = [0, 1, 7]"] ;
9 -> 17 ;
18 [label="entropy = 0.0\nsamples = 6\nvalue = [0, 0, 6]"] ;
8 -> 18 ;
19 [label="maga <= 0.5\nentropy = 0.874\nsamples = 17\nvalue = [0, 12, 5]"] ;
7 -> 19 ;
20 [label="entropy = 0.98\nsamples = 12\nvalue = [0, 7, 5]"] ;
19 -> 20 ;
21 [label="entropy = 0.0\nsamples = 5\nvalue = [0, 5, 0]"] ;
19 -> 21 ;
22 [label="entropy = 0.0\nsamples = 7\nvalue = [0, 0, 7]"] ;
6 -> 22 ;
23 [label="entropy = 0.0\nsamples = 7\nvalue = [0, 0, 7]"] ;
5 -> 23 ;
24 [label="entropy = 0.0\nsamples = 8\nvalue = [0, 0, 8]"] ;
4 -> 24 ;
25 [label="episode <= 0.5\nentropy = 0.567\nsamples = 15\nvalue = [0, 13, 2]"] ;
3 -> 25 ;
26 [label="maga <= 0.5\nentropy = 0.684\nsamples = 11\nvalue = [0, 9, 2]"] ;
25 -> 26 ;
27 [label="entropy = 0.863\nsamples = 7\nvalue = [0, 5, 2]"] ;
26 -> 27 ;
28 [label="entropy = 0.0\nsamples = 4\nvalue = [0, 4, 0]"] ;
26 -> 28 ;
29 [label="entropy = 0.0\nsamples = 4\nvalue = [0, 4, 0]"] ;
25 -> 29 ;
30 [label="entropy = 0.0\nsamples = 14\nvalue = [0, 14, 0]"] ;
2 -> 30 ;
31 [label="entropy = 0.0\nsamples = 11\nvalue = [0, 0, 11]"] ;
1 -> 31 ;
32 [label="entropy = 0.0\nsamples = 18\nvalue = [0, 18, 0]"] ;
0 -> 32 [labeldistance=2.5, labelangle=-45, headlabel="False"] ;
}
