digraph Tree {
node [shape=box] ;
0 [label="great <= 0.5\nentropy = 1.55\nsamples = 810\nvalue = [314, 308, 188]"] ;
1 [label="illegal <= 0.5\nentropy = 1.552\nsamples = 792\nvalue = [314, 290, 188]"] ;
0 -> 1 [labeldistance=2.5, labelangle=45, headlabel="True"] ;
2 [label="good <= 0.5\nentropy = 1.545\nsamples = 781\nvalue = [314, 290, 177]"] ;
1 -> 2 ;
3 [label="live <= 0.5\nentropy = 1.546\nsamples = 767\nvalue = [314, 276, 177]"] ;
2 -> 3 ;
4 [label="bad <= 0.5\nentropy = 1.546\nsamples = 752\nvalue = [314, 263, 175]"] ;
3 -> 4 ;
5 [label="evil <= 0.5\nentropy = 1.539\nsamples = 744\nvalue = [314, 263, 167]"] ;
4 -> 5 ;
6 [label="jail <= 0.5\nentropy = 1.533\nsamples = 737\nvalue = [314, 263, 160]"] ;
5 -> 6 ;
7 [label="new <= 0.5\nentropy = 1.527\nsamples = 730\nvalue = [314, 263, 153]"] ;
6 -> 7 ;
8 [label="dangerous <= 0.5\nentropy = 1.522\nsamples = 713\nvalue = [314, 251, 148]"] ;
7 -> 8 ;
9 [label="crazy <= 0.5\nentropy = 1.516\nsamples = 707\nvalue = [314, 251, 142]"] ;
8 -> 9 ;
10 [label="american <= 0.5\nentropy = 1.507\nsamples = 699\nvalue = [314, 250, 135]"] ;
9 -> 10 ;
11 [label="sick <= 0.5\nentropy = 1.517\nsamples = 676\nvalue = [295, 246, 135]"] ;
10 -> 11 ;
12 [label="criminal <= 0.5\nentropy = 1.511\nsamples = 671\nvalue = [295, 246, 130]"] ;
11 -> 12 ;
13 [label="hard <= 0.5\nentropy = 1.504\nsamples = 666\nvalue = [295, 246, 125]"] ;
12 -> 13 ;
14 [label="wow <= 0.5\nentropy = 1.496\nsamples = 659\nvalue = [295, 245, 119]"] ;
13 -> 14 ;
15 [label="love <= 0.5\nentropy = 1.496\nsamples = 652\nvalue = [295, 238, 119]"] ;
14 -> 15 ;
16 [label="right <= 0.5\nentropy = 1.497\nsamples = 645\nvalue = [295, 231, 119]"] ;
15 -> 16 ;
17 [label="sure <= 0.5\nentropy = 1.495\nsamples = 636\nvalue = [295, 223, 118]"] ;
16 -> 17 ;
18 [label="wrong <= 0.5\nentropy = 1.493\nsamples = 627\nvalue = [295, 215, 117]"] ;
17 -> 18 ;
19 [label="unbelievable <= 0.5\nentropy = 1.487\nsamples = 623\nvalue = [295, 215, 113]"] ;
18 -> 19 ;
20 [label="job <= 0.5\nentropy = 1.481\nsamples = 619\nvalue = [295, 215, 109]"] ;
19 -> 20 ;
21 [label="backfiretrump <= 0.5\nentropy = 1.473\nsamples = 609\nvalue = [295, 209, 105]"] ;
20 -> 21 ;
22 [label="trumptrain <= 0.5\nentropy = 1.484\nsamples = 593\nvalue = [279, 209, 105]"] ;
21 -> 22 ;
23 [label="building <= 0.5\nentropy = 1.499\nsamples = 542\nvalue = [243, 199, 100]"] ;
22 -> 23 ;
24 [label="presidenttrump <= 0.5\nentropy = 1.504\nsamples = 534\nvalue = [235, 199, 100]"] ;
23 -> 24 ;
25 [label="entropy = 1.514\nsamples = 511\nvalue = [221, 190, 100]"] ;
24 -> 25 ;
26 [label="entropy = 0.966\nsamples = 23\nvalue = [14, 9, 0]"] ;
24 -> 26 ;
27 [label="entropy = 0.0\nsamples = 8\nvalue = [8, 0, 0]"] ;
23 -> 27 ;
28 [label="trumptrain maga <= 0.5\nentropy = 1.144\nsamples = 51\nvalue = [36, 10, 5]"] ;
22 -> 28 ;
29 [label="support <= 0.5\nentropy = 1.041\nsamples = 48\nvalue = [36, 8, 4]"] ;
28 -> 29 ;
30 [label="entropy = 0.906\nsamples = 45\nvalue = [36, 6, 3]"] ;
29 -> 30 ;
31 [label="entropy = 0.918\nsamples = 3\nvalue = [0, 2, 1]"] ;
29 -> 31 ;
32 [label="painful cancer <= 0.5\nentropy = 0.918\nsamples = 3\nvalue = [0, 2, 1]"] ;
28 -> 32 ;
33 [label="entropy = 0.0\nsamples = 2\nvalue = [0, 2, 0]"] ;
32 -> 33 ;
34 [label="entropy = 0.0\nsamples = 1\nvalue = [0, 0, 1]"] ;
32 -> 34 ;
35 [label="entropy = 0.0\nsamples = 16\nvalue = [16, 0, 0]"] ;
21 -> 35 ;
36 [label="person just <= 0.5\nentropy = 0.971\nsamples = 10\nvalue = [0, 6, 4]"] ;
20 -> 36 ;
37 [label="later <= 0.5\nentropy = 0.918\nsamples = 6\nvalue = [0, 2, 4]"] ;
36 -> 37 ;
38 [label="lost <= 0.5\nentropy = 0.722\nsamples = 5\nvalue = [0, 1, 4]"] ;
37 -> 38 ;
39 [label="entropy = 0.0\nsamples = 4\nvalue = [0, 0, 4]"] ;
38 -> 39 ;
40 [label="entropy = 0.0\nsamples = 1\nvalue = [0, 1, 0]"] ;
38 -> 40 ;
41 [label="entropy = 0.0\nsamples = 1\nvalue = [0, 1, 0]"] ;
37 -> 41 ;
42 [label="entropy = 0.0\nsamples = 4\nvalue = [0, 4, 0]"] ;
36 -> 42 ;
43 [label="entropy = 0.0\nsamples = 4\nvalue = [0, 0, 4]"] ;
19 -> 43 ;
44 [label="entropy = 0.0\nsamples = 4\nvalue = [0, 0, 4]"] ;
18 -> 44 ;
45 [label="just <= 0.5\nentropy = 0.503\nsamples = 9\nvalue = [0, 8, 1]"] ;
17 -> 45 ;
46 [label="entropy = 0.0\nsamples = 8\nvalue = [0, 8, 0]"] ;
45 -> 46 ;
47 [label="entropy = 0.0\nsamples = 1\nvalue = [0, 0, 1]"] ;
45 -> 47 ;
48 [label="oh <= 0.5\nentropy = 0.503\nsamples = 9\nvalue = [0, 8, 1]"] ;
16 -> 48 ;
49 [label="entropy = 0.0\nsamples = 8\nvalue = [0, 8, 0]"] ;
48 -> 49 ;
50 [label="entropy = 0.0\nsamples = 1\nvalue = [0, 0, 1]"] ;
48 -> 50 ;
51 [label="entropy = 0.0\nsamples = 7\nvalue = [0, 7, 0]"] ;
15 -> 51 ;
52 [label="entropy = 0.0\nsamples = 7\nvalue = [0, 7, 0]"] ;
14 -> 52 ;
53 [label="truth <= 0.5\nentropy = 0.592\nsamples = 7\nvalue = [0, 1, 6]"] ;
13 -> 53 ;
54 [label="entropy = 0.0\nsamples = 6\nvalue = [0, 0, 6]"] ;
53 -> 54 ;
55 [label="entropy = 0.0\nsamples = 1\nvalue = [0, 1, 0]"] ;
53 -> 55 ;
56 [label="entropy = 0.0\nsamples = 5\nvalue = [0, 0, 5]"] ;
12 -> 56 ;
57 [label="entropy = 0.0\nsamples = 5\nvalue = [0, 0, 5]"] ;
11 -> 57 ;
58 [label="coup <= 0.5\nentropy = 0.667\nsamples = 23\nvalue = [19, 4, 0]"] ;
10 -> 58 ;
59 [label="potus <= 0.5\nentropy = 0.918\nsamples = 12\nvalue = [8, 4, 0]"] ;
58 -> 59 ;
60 [label="deep <= 0.5\nentropy = 1.0\nsamples = 8\nvalue = [4, 4, 0]"] ;
59 -> 60 ;
61 [label="trump <= 1.0\nentropy = 0.985\nsamples = 7\nvalue = [3, 4, 0]"] ;
60 -> 61 ;
62 [label="russia <= 0.5\nentropy = 0.918\nsamples = 6\nvalue = [2, 4, 0]"] ;
61 -> 62 ;
63 [label="left <= 0.5\nentropy = 0.722\nsamples = 5\nvalue = [1, 4, 0]"] ;
62 -> 63 ;
64 [label="entropy = 0.0\nsamples = 4\nvalue = [0, 4, 0]"] ;
63 -> 64 ;
65 [label="entropy = 0.0\nsamples = 1\nvalue = [1, 0, 0]"] ;
63 -> 65 ;
66 [label="entropy = 0.0\nsamples = 1\nvalue = [1, 0, 0]"] ;
62 -> 66 ;
67 [label="entropy = 0.0\nsamples = 1\nvalue = [1, 0, 0]"] ;
61 -> 67 ;
68 [label="entropy = 0.0\nsamples = 1\nvalue = [1, 0, 0]"] ;
60 -> 68 ;
69 [label="entropy = 0.0\nsamples = 4\nvalue = [4, 0, 0]"] ;
59 -> 69 ;
70 [label="entropy = 0.0\nsamples = 11\nvalue = [11, 0, 0]"] ;
58 -> 70 ;
71 [label="best <= 0.5\nentropy = 0.544\nsamples = 8\nvalue = [0, 1, 7]"] ;
9 -> 71 ;
72 [label="entropy = 0.0\nsamples = 7\nvalue = [0, 0, 7]"] ;
71 -> 72 ;
73 [label="entropy = 0.0\nsamples = 1\nvalue = [0, 1, 0]"] ;
71 -> 73 ;
74 [label="entropy = 0.0\nsamples = 6\nvalue = [0, 0, 6]"] ;
8 -> 74 ;
75 [label="thetimes <= 0.5\nentropy = 0.874\nsamples = 17\nvalue = [0, 12, 5]"] ;
7 -> 75 ;
76 [label="nuclear <= 0.5\nentropy = 0.722\nsamples = 15\nvalue = [0, 12, 3]"] ;
75 -> 76 ;
77 [label="soul <= 0.5\nentropy = 0.391\nsamples = 13\nvalue = [0, 12, 1]"] ;
76 -> 77 ;
78 [label="entropy = 0.0\nsamples = 12\nvalue = [0, 12, 0]"] ;
77 -> 78 ;
79 [label="entropy = 0.0\nsamples = 1\nvalue = [0, 0, 1]"] ;
77 -> 79 ;
80 [label="entropy = 0.0\nsamples = 2\nvalue = [0, 0, 2]"] ;
76 -> 80 ;
81 [label="entropy = 0.0\nsamples = 2\nvalue = [0, 0, 2]"] ;
75 -> 81 ;
82 [label="entropy = 0.0\nsamples = 7\nvalue = [0, 0, 7]"] ;
6 -> 82 ;
83 [label="entropy = 0.0\nsamples = 7\nvalue = [0, 0, 7]"] ;
5 -> 83 ;
84 [label="entropy = 0.0\nsamples = 8\nvalue = [0, 0, 8]"] ;
4 -> 84 ;
85 [label="unfortunate live <= 0.5\nentropy = 0.567\nsamples = 15\nvalue = [0, 13, 2]"] ;
3 -> 85 ;
86 [label="crazy waters <= 0.5\nentropy = 0.371\nsamples = 14\nvalue = [0, 13, 1]"] ;
85 -> 86 ;
87 [label="entropy = 0.0\nsamples = 13\nvalue = [0, 13, 0]"] ;
86 -> 87 ;
88 [label="entropy = 0.0\nsamples = 1\nvalue = [0, 0, 1]"] ;
86 -> 88 ;
89 [label="entropy = 0.0\nsamples = 1\nvalue = [0, 0, 1]"] ;
85 -> 89 ;
90 [label="entropy = 0.0\nsamples = 14\nvalue = [0, 14, 0]"] ;
2 -> 90 ;
91 [label="entropy = 0.0\nsamples = 11\nvalue = [0, 0, 11]"] ;
1 -> 91 ;
92 [label="entropy = 0.0\nsamples = 18\nvalue = [0, 18, 0]"] ;
0 -> 92 [labeldistance=2.5, labelangle=-45, headlabel="False"] ;
}
