digraph Tree {
node [shape=box] ;
0 [label="great <= 0.5\nentropy = 1.55\nsamples = 810\nvalue = [314, 308, 188]"] ;
1 [label="illegal <= 0.5\nentropy = 1.552\nsamples = 792\nvalue = [314, 290, 188]"] ;
0 -> 1 [labeldistance=2.5, labelangle=45, headlabel="True"] ;
2 [label="good <= 0.5\nentropy = 1.545\nsamples = 781\nvalue = [314, 290, 177]"] ;
1 -> 2 ;
3 [label="live <= 0.5\nentropy = 1.546\nsamples = 767\nvalue = [314, 276, 177]"] ;
2 -> 3 ;
4 [label="bad <= 0.5\nentropy = 1.546\nsamples = 752\nvalue = [314, 263, 175]"] ;
3 -> 4 ;
5 [label="evil <= 0.5\nentropy = 1.539\nsamples = 744\nvalue = [314, 263, 167]"] ;
4 -> 5 ;
6 [label="jail <= 0.5\nentropy = 1.533\nsamples = 737\nvalue = [314, 263, 160]"] ;
5 -> 6 ;
7 [label="new <= 0.5\nentropy = 1.527\nsamples = 730\nvalue = [314, 263, 153]"] ;
6 -> 7 ;
8 [label="dangerous <= 0.5\nentropy = 1.522\nsamples = 713\nvalue = [314, 251, 148]"] ;
7 -> 8 ;
9 [label="crazy <= 0.5\nentropy = 1.516\nsamples = 707\nvalue = [314, 251, 142]"] ;
8 -> 9 ;
10 [label="american <= 0.5\nentropy = 1.507\nsamples = 699\nvalue = [314, 250, 135]"] ;
9 -> 10 ;
11 [label="sick <= 0.5\nentropy = 1.517\nsamples = 676\nvalue = [295, 246, 135]"] ;
10 -> 11 ;
12 [label="criminal <= 0.5\nentropy = 1.511\nsamples = 671\nvalue = [295, 246, 130]"] ;
11 -> 12 ;
13 [label="hard <= 0.5\nentropy = 1.504\nsamples = 666\nvalue = [295, 246, 125]"] ;
12 -> 13 ;
14 [label="wow <= 0.5\nentropy = 1.496\nsamples = 659\nvalue = [295, 245, 119]"] ;
13 -> 14 ;
15 [label="entropy = 1.496\nsamples = 652\nvalue = [295, 238, 119]"] ;
14 -> 15 ;
16 [label="entropy = 0.0\nsamples = 7\nvalue = [0, 7, 0]"] ;
14 -> 16 ;
17 [label="qanon <= 0.5\nentropy = 0.592\nsamples = 7\nvalue = [0, 1, 6]"] ;
13 -> 17 ;
18 [label="entropy = 0.0\nsamples = 5\nvalue = [0, 0, 5]"] ;
17 -> 18 ;
19 [label="entropy = 1.0\nsamples = 2\nvalue = [0, 1, 1]"] ;
17 -> 19 ;
20 [label="entropy = 0.0\nsamples = 5\nvalue = [0, 0, 5]"] ;
12 -> 20 ;
21 [label="entropy = 0.0\nsamples = 5\nvalue = [0, 0, 5]"] ;
11 -> 21 ;
22 [label="coup <= 0.5\nentropy = 0.667\nsamples = 23\nvalue = [19, 4, 0]"] ;
10 -> 22 ;
23 [label="potus <= 0.5\nentropy = 0.918\nsamples = 12\nvalue = [8, 4, 0]"] ;
22 -> 23 ;
24 [label="thinker <= 0.5\nentropy = 1.0\nsamples = 8\nvalue = [4, 4, 0]"] ;
23 -> 24 ;
25 [label="american people <= 0.5\nentropy = 0.971\nsamples = 5\nvalue = [2, 3, 0]"] ;
24 -> 25 ;
26 [label="entropy = 0.918\nsamples = 3\nvalue = [1, 2, 0]"] ;
25 -> 26 ;
27 [label="entropy = 1.0\nsamples = 2\nvalue = [1, 1, 0]"] ;
25 -> 27 ;
28 [label="entropy = 0.918\nsamples = 3\nvalue = [2, 1, 0]"] ;
24 -> 28 ;
29 [label="entropy = 0.0\nsamples = 4\nvalue = [4, 0, 0]"] ;
23 -> 29 ;
30 [label="entropy = 0.0\nsamples = 11\nvalue = [11, 0, 0]"] ;
22 -> 30 ;
31 [label="maxine <= 0.5\nentropy = 0.544\nsamples = 8\nvalue = [0, 1, 7]"] ;
9 -> 31 ;
32 [label="entropy = 0.0\nsamples = 6\nvalue = [0, 0, 6]"] ;
31 -> 32 ;
33 [label="entropy = 1.0\nsamples = 2\nvalue = [0, 1, 1]"] ;
31 -> 33 ;
34 [label="entropy = 0.0\nsamples = 6\nvalue = [0, 0, 6]"] ;
8 -> 34 ;
35 [label="copy <= 0.5\nentropy = 0.874\nsamples = 17\nvalue = [0, 12, 5]"] ;
7 -> 35 ;
36 [label="obamas <= 0.5\nentropy = 0.722\nsamples = 15\nvalue = [0, 12, 3]"] ;
35 -> 36 ;
37 [label="maga <= 0.5\nentropy = 0.391\nsamples = 13\nvalue = [0, 12, 1]"] ;
36 -> 37 ;
38 [label="potus <= 0.5\nentropy = 0.544\nsamples = 8\nvalue = [0, 7, 1]"] ;
37 -> 38 ;
39 [label="d <= 0.5\nentropy = 0.65\nsamples = 6\nvalue = [0, 5, 1]"] ;
38 -> 39 ;
40 [label="entropy = 0.811\nsamples = 4\nvalue = [0, 3, 1]"] ;
39 -> 40 ;
41 [label="entropy = 0.0\nsamples = 2\nvalue = [0, 2, 0]"] ;
39 -> 41 ;
42 [label="entropy = 0.0\nsamples = 2\nvalue = [0, 2, 0]"] ;
38 -> 42 ;
43 [label="entropy = 0.0\nsamples = 5\nvalue = [0, 5, 0]"] ;
37 -> 43 ;
44 [label="entropy = 0.0\nsamples = 2\nvalue = [0, 0, 2]"] ;
36 -> 44 ;
45 [label="entropy = 0.0\nsamples = 2\nvalue = [0, 0, 2]"] ;
35 -> 45 ;
46 [label="entropy = 0.0\nsamples = 7\nvalue = [0, 0, 7]"] ;
6 -> 46 ;
47 [label="entropy = 0.0\nsamples = 7\nvalue = [0, 0, 7]"] ;
5 -> 47 ;
48 [label="entropy = 0.0\nsamples = 8\nvalue = [0, 0, 8]"] ;
4 -> 48 ;
49 [label="episode <= 0.5\nentropy = 0.567\nsamples = 15\nvalue = [0, 13, 2]"] ;
3 -> 49 ;
50 [label="maga <= 0.5\nentropy = 0.684\nsamples = 11\nvalue = [0, 9, 2]"] ;
49 -> 50 ;
51 [label="stand orders <= 0.5\nentropy = 0.863\nsamples = 7\nvalue = [0, 5, 2]"] ;
50 -> 51 ;
52 [label="entropy = 0.971\nsamples = 5\nvalue = [0, 3, 2]"] ;
51 -> 52 ;
53 [label="entropy = 0.0\nsamples = 2\nvalue = [0, 2, 0]"] ;
51 -> 53 ;
54 [label="entropy = 0.0\nsamples = 4\nvalue = [0, 4, 0]"] ;
50 -> 54 ;
55 [label="entropy = 0.0\nsamples = 4\nvalue = [0, 4, 0]"] ;
49 -> 55 ;
56 [label="entropy = 0.0\nsamples = 14\nvalue = [0, 14, 0]"] ;
2 -> 56 ;
57 [label="entropy = 0.0\nsamples = 11\nvalue = [0, 0, 11]"] ;
1 -> 57 ;
58 [label="entropy = 0.0\nsamples = 18\nvalue = [0, 18, 0]"] ;
0 -> 58 [labeldistance=2.5, labelangle=-45, headlabel="False"] ;
}
