digraph Tree {
node [shape=box] ;
0 [label="great <= 0.5\nentropy = 1.55\nsamples = 810\nvalue = [314, 308, 188]"] ;
1 [label="illegal <= 0.5\nentropy = 1.552\nsamples = 792\nvalue = [314, 290, 188]"] ;
0 -> 1 [labeldistance=2.5, labelangle=45, headlabel="True"] ;
2 [label="good <= 0.5\nentropy = 1.545\nsamples = 781\nvalue = [314, 290, 177]"] ;
1 -> 2 ;
3 [label="live <= 0.5\nentropy = 1.546\nsamples = 767\nvalue = [314, 276, 177]"] ;
2 -> 3 ;
4 [label="bad <= 0.5\nentropy = 1.546\nsamples = 752\nvalue = [314, 263, 175]"] ;
3 -> 4 ;
5 [label="evil <= 0.5\nentropy = 1.539\nsamples = 744\nvalue = [314, 263, 167]"] ;
4 -> 5 ;
6 [label="jail <= 0.5\nentropy = 1.533\nsamples = 737\nvalue = [314, 263, 160]"] ;
5 -> 6 ;
7 [label="new <= 0.5\nentropy = 1.527\nsamples = 730\nvalue = [314, 263, 153]"] ;
6 -> 7 ;
8 [label="dangerous <= 0.5\nentropy = 1.522\nsamples = 713\nvalue = [314, 251, 148]"] ;
7 -> 8 ;
9 [label="crazy <= 0.5\nentropy = 1.516\nsamples = 707\nvalue = [314, 251, 142]"] ;
8 -> 9 ;
10 [label="entropy = 1.507\nsamples = 699\nvalue = [314, 250, 135]"] ;
9 -> 10 ;
11 [label="entropy = 0.544\nsamples = 8\nvalue = [0, 1, 7]"] ;
9 -> 11 ;
12 [label="entropy = 0.0\nsamples = 6\nvalue = [0, 0, 6]"] ;
8 -> 12 ;
13 [label="maga <= 0.5\nentropy = 0.874\nsamples = 17\nvalue = [0, 12, 5]"] ;
7 -> 13 ;
14 [label="york <= 0.5\nentropy = 0.98\nsamples = 12\nvalue = [0, 7, 5]"] ;
13 -> 14 ;
15 [label="entropy = 0.918\nsamples = 9\nvalue = [0, 6, 3]"] ;
14 -> 15 ;
16 [label="entropy = 0.918\nsamples = 3\nvalue = [0, 1, 2]"] ;
14 -> 16 ;
17 [label="entropy = 0.0\nsamples = 5\nvalue = [0, 5, 0]"] ;
13 -> 17 ;
18 [label="entropy = 0.0\nsamples = 7\nvalue = [0, 0, 7]"] ;
6 -> 18 ;
19 [label="entropy = 0.0\nsamples = 7\nvalue = [0, 0, 7]"] ;
5 -> 19 ;
20 [label="entropy = 0.0\nsamples = 8\nvalue = [0, 0, 8]"] ;
4 -> 20 ;
21 [label="inaugural episode <= 0.5\nentropy = 0.567\nsamples = 15\nvalue = [0, 13, 2]"] ;
3 -> 21 ;
22 [label="maga <= 0.5\nentropy = 0.684\nsamples = 11\nvalue = [0, 9, 2]"] ;
21 -> 22 ;
23 [label="obama <= 0.5\nentropy = 0.863\nsamples = 7\nvalue = [0, 5, 2]"] ;
22 -> 23 ;
24 [label="entropy = 0.811\nsamples = 4\nvalue = [0, 3, 1]"] ;
23 -> 24 ;
25 [label="entropy = 0.918\nsamples = 3\nvalue = [0, 2, 1]"] ;
23 -> 25 ;
26 [label="entropy = 0.0\nsamples = 4\nvalue = [0, 4, 0]"] ;
22 -> 26 ;
27 [label="entropy = 0.0\nsamples = 4\nvalue = [0, 4, 0]"] ;
21 -> 27 ;
28 [label="entropy = 0.0\nsamples = 14\nvalue = [0, 14, 0]"] ;
2 -> 28 ;
29 [label="entropy = 0.0\nsamples = 11\nvalue = [0, 0, 11]"] ;
1 -> 29 ;
30 [label="entropy = 0.0\nsamples = 18\nvalue = [0, 18, 0]"] ;
0 -> 30 [labeldistance=2.5, labelangle=-45, headlabel="False"] ;
}
