digraph Tree {
node [shape=box] ;
0 [label="great <= 0.5\nentropy = 1.55\nsamples = 810\nvalue = [314, 308, 188]"] ;
1 [label="illegal <= 0.5\nentropy = 1.552\nsamples = 792\nvalue = [314, 290, 188]"] ;
0 -> 1 [labeldistance=2.5, labelangle=45, headlabel="True"] ;
2 [label="good <= 0.5\nentropy = 1.543\nsamples = 778\nvalue = [314, 289, 175]"] ;
1 -> 2 ;
3 [label="new <= 0.5\nentropy = 1.545\nsamples = 765\nvalue = [314, 276, 175]"] ;
2 -> 3 ;
4 [label="crazy <= 0.5\nentropy = 1.543\nsamples = 748\nvalue = [314, 262, 172]"] ;
3 -> 4 ;
5 [label="jail <= 0.5\nentropy = 1.538\nsamples = 741\nvalue = [314, 262, 165]"] ;
4 -> 5 ;
6 [label="sick <= 0.5\nentropy = 1.532\nsamples = 734\nvalue = [314, 262, 158]"] ;
5 -> 6 ;
7 [label="hard <= 0.5\nentropy = 1.525\nsamples = 727\nvalue = [314, 262, 151]"] ;
6 -> 7 ;
8 [label="criminal <= 0.5\nentropy = 1.516\nsamples = 718\nvalue = [314, 261, 143]"] ;
7 -> 8 ;
9 [label="deep <= 0.5\nentropy = 1.509\nsamples = 712\nvalue = [314, 261, 137]"] ;
8 -> 9 ;
10 [label="suffering <= 0.5\nentropy = 1.514\nsamples = 697\nvalue = [300, 261, 136]"] ;
9 -> 10 ;
11 [label="entropy = 1.518\nsamples = 687\nvalue = [290, 261, 136]"] ;
10 -> 11 ;
12 [label="entropy = 0.0\nsamples = 10\nvalue = [10, 0, 0]"] ;
10 -> 12 ;
13 [label="potus <= 0.5\nentropy = 0.353\nsamples = 15\nvalue = [14, 0, 1]"] ;
9 -> 13 ;
14 [label="entropy = 0.0\nsamples = 13\nvalue = [13, 0, 0]"] ;
13 -> 14 ;
15 [label="entropy = 1.0\nsamples = 2\nvalue = [1, 0, 1]"] ;
13 -> 15 ;
16 [label="entropy = 0.0\nsamples = 6\nvalue = [0, 0, 6]"] ;
8 -> 16 ;
17 [label="qanon <= 0.5\nentropy = 0.503\nsamples = 9\nvalue = [0, 1, 8]"] ;
7 -> 17 ;
18 [label="entropy = 0.0\nsamples = 7\nvalue = [0, 0, 7]"] ;
17 -> 18 ;
19 [label="entropy = 1.0\nsamples = 2\nvalue = [0, 1, 1]"] ;
17 -> 19 ;
20 [label="entropy = 0.0\nsamples = 7\nvalue = [0, 0, 7]"] ;
6 -> 20 ;
21 [label="entropy = 0.0\nsamples = 7\nvalue = [0, 0, 7]"] ;
5 -> 21 ;
22 [label="entropy = 0.0\nsamples = 7\nvalue = [0, 0, 7]"] ;
4 -> 22 ;
23 [label="barack <= 0.5\nentropy = 0.672\nsamples = 17\nvalue = [0, 14, 3]"] ;
3 -> 23 ;
24 [label="york times <= 0.5\nentropy = 0.353\nsamples = 15\nvalue = [0, 14, 1]"] ;
23 -> 24 ;
25 [label="entropy = 0.0\nsamples = 13\nvalue = [0, 13, 0]"] ;
24 -> 25 ;
26 [label="entropy = 1.0\nsamples = 2\nvalue = [0, 1, 1]"] ;
24 -> 26 ;
27 [label="entropy = 0.0\nsamples = 2\nvalue = [0, 0, 2]"] ;
23 -> 27 ;
28 [label="entropy = 0.0\nsamples = 13\nvalue = [0, 13, 0]"] ;
2 -> 28 ;
29 [label="rate lie <= 0.5\nentropy = 0.371\nsamples = 14\nvalue = [0, 1, 13]"] ;
1 -> 29 ;
30 [label="buildthatwall <= 0.5\nentropy = 0.503\nsamples = 9\nvalue = [0, 1, 8]"] ;
29 -> 30 ;
31 [label="killed illegal <= 0.5\nentropy = 0.65\nsamples = 6\nvalue = [0, 1, 5]"] ;
30 -> 31 ;
32 [label="entropy = 0.811\nsamples = 4\nvalue = [0, 1, 3]"] ;
31 -> 32 ;
33 [label="entropy = 0.0\nsamples = 2\nvalue = [0, 0, 2]"] ;
31 -> 33 ;
34 [label="entropy = 0.0\nsamples = 3\nvalue = [0, 0, 3]"] ;
30 -> 34 ;
35 [label="entropy = 0.0\nsamples = 5\nvalue = [0, 0, 5]"] ;
29 -> 35 ;
36 [label="entropy = 0.0\nsamples = 18\nvalue = [0, 18, 0]"] ;
0 -> 36 [labeldistance=2.5, labelangle=-45, headlabel="False"] ;
}
