digraph Tree {
node [shape=box] ;
0 [label="great <= 0.5\nentropy = 1.55\nsamples = 810\nvalue = [314, 308, 188]"] ;
1 [label="illegal <= 0.5\nentropy = 1.552\nsamples = 792\nvalue = [314, 290, 188]"] ;
0 -> 1 [labeldistance=2.5, labelangle=45, headlabel="True"] ;
2 [label="good <= 0.5\nentropy = 1.543\nsamples = 778\nvalue = [314, 289, 175]"] ;
1 -> 2 ;
3 [label="new <= 0.5\nentropy = 1.545\nsamples = 765\nvalue = [314, 276, 175]"] ;
2 -> 3 ;
4 [label="crazy <= 0.5\nentropy = 1.543\nsamples = 748\nvalue = [314, 262, 172]"] ;
3 -> 4 ;
5 [label="jail <= 0.5\nentropy = 1.538\nsamples = 741\nvalue = [314, 262, 165]"] ;
4 -> 5 ;
6 [label="entropy = 1.532\nsamples = 734\nvalue = [314, 262, 158]"] ;
5 -> 6 ;
7 [label="entropy = 0.0\nsamples = 7\nvalue = [0, 0, 7]"] ;
5 -> 7 ;
8 [label="entropy = 0.0\nsamples = 7\nvalue = [0, 0, 7]"] ;
4 -> 8 ;
9 [label="barack <= 0.5\nentropy = 0.672\nsamples = 17\nvalue = [0, 14, 3]"] ;
3 -> 9 ;
10 [label="care <= 0.5\nentropy = 0.353\nsamples = 15\nvalue = [0, 14, 1]"] ;
9 -> 10 ;
11 [label="entropy = 0.0\nsamples = 14\nvalue = [0, 14, 0]"] ;
10 -> 11 ;
12 [label="entropy = 0.0\nsamples = 1\nvalue = [0, 0, 1]"] ;
10 -> 12 ;
13 [label="entropy = 0.0\nsamples = 2\nvalue = [0, 0, 2]"] ;
9 -> 13 ;
14 [label="entropy = 0.0\nsamples = 13\nvalue = [0, 13, 0]"] ;
2 -> 14 ;
15 [label="sense <= 0.5\nentropy = 0.371\nsamples = 14\nvalue = [0, 1, 13]"] ;
1 -> 15 ;
16 [label="entropy = 0.0\nsamples = 13\nvalue = [0, 0, 13]"] ;
15 -> 16 ;
17 [label="entropy = 0.0\nsamples = 1\nvalue = [0, 1, 0]"] ;
15 -> 17 ;
18 [label="entropy = 0.0\nsamples = 18\nvalue = [0, 18, 0]"] ;
0 -> 18 [labeldistance=2.5, labelangle=-45, headlabel="False"] ;
}
