digraph Tree {
node [shape=box] ;
0 [label="great <= 0.5\nentropy = 1.55\nsamples = 810\nvalue = [314, 308, 188]"] ;
1 [label="illegal <= 0.5\nentropy = 1.552\nsamples = 792\nvalue = [314, 290, 188]"] ;
0 -> 1 [labeldistance=2.5, labelangle=45, headlabel="True"] ;
2 [label="good <= 0.5\nentropy = 1.545\nsamples = 781\nvalue = [314, 290, 177]"] ;
1 -> 2 ;
3 [label="live <= 0.5\nentropy = 1.546\nsamples = 767\nvalue = [314, 276, 177]"] ;
2 -> 3 ;
4 [label="bad <= 0.5\nentropy = 1.546\nsamples = 752\nvalue = [314, 263, 175]"] ;
3 -> 4 ;
5 [label="evil <= 0.5\nentropy = 1.539\nsamples = 744\nvalue = [314, 263, 167]"] ;
4 -> 5 ;
6 [label="jail <= 0.5\nentropy = 1.533\nsamples = 737\nvalue = [314, 263, 160]"] ;
5 -> 6 ;
7 [label="new <= 0.5\nentropy = 1.527\nsamples = 730\nvalue = [314, 263, 153]"] ;
6 -> 7 ;
8 [label="dangerous <= 0.5\nentropy = 1.522\nsamples = 713\nvalue = [314, 251, 148]"] ;
7 -> 8 ;
9 [label="crazy <= 0.5\nentropy = 1.516\nsamples = 707\nvalue = [314, 251, 142]"] ;
8 -> 9 ;
10 [label="american <= 0.5\nentropy = 1.507\nsamples = 699\nvalue = [314, 250, 135]"] ;
9 -> 10 ;
11 [label="sick <= 0.5\nentropy = 1.517\nsamples = 676\nvalue = [295, 246, 135]"] ;
10 -> 11 ;
12 [label="criminal <= 0.5\nentropy = 1.511\nsamples = 671\nvalue = [295, 246, 130]"] ;
11 -> 12 ;
13 [label="hard <= 0.5\nentropy = 1.504\nsamples = 666\nvalue = [295, 246, 125]"] ;
12 -> 13 ;
14 [label="wow <= 0.5\nentropy = 1.496\nsamples = 659\nvalue = [295, 245, 119]"] ;
13 -> 14 ;
15 [label="love <= 0.5\nentropy = 1.496\nsamples = 652\nvalue = [295, 238, 119]"] ;
14 -> 15 ;
16 [label="right <= 0.5\nentropy = 1.497\nsamples = 645\nvalue = [295, 231, 119]"] ;
15 -> 16 ;
17 [label="sure <= 0.5\nentropy = 1.495\nsamples = 636\nvalue = [295, 223, 118]"] ;
16 -> 17 ;
18 [label="wrong <= 0.5\nentropy = 1.493\nsamples = 627\nvalue = [295, 215, 117]"] ;
17 -> 18 ;
19 [label="unbelievable <= 0.5\nentropy = 1.487\nsamples = 623\nvalue = [295, 215, 113]"] ;
18 -> 19 ;
20 [label="job <= 0.5\nentropy = 1.481\nsamples = 619\nvalue = [295, 215, 109]"] ;
19 -> 20 ;
21 [label="backfiretrump <= 0.5\nentropy = 1.473\nsamples = 609\nvalue = [295, 209, 105]"] ;
20 -> 21 ;
22 [label="trumptrain <= 0.5\nentropy = 1.484\nsamples = 593\nvalue = [279, 209, 105]"] ;
21 -> 22 ;
23 [label="building <= 0.5\nentropy = 1.499\nsamples = 542\nvalue = [243, 199, 100]"] ;
22 -> 23 ;
24 [label="presidenttrump <= 0.5\nentropy = 1.504\nsamples = 534\nvalue = [235, 199, 100]"] ;
23 -> 24 ;
25 [label="entropy = 1.514\nsamples = 511\nvalue = [221, 190, 100]"] ;
24 -> 25 ;
26 [label="entropy = 0.966\nsamples = 23\nvalue = [14, 9, 0]"] ;
24 -> 26 ;
27 [label="entropy = 0.0\nsamples = 8\nvalue = [8, 0, 0]"] ;
23 -> 27 ;
28 [label="trumptrain maga <= 0.5\nentropy = 1.144\nsamples = 51\nvalue = [36, 10, 5]"] ;
22 -> 28 ;
29 [label="support <= 0.5\nentropy = 1.041\nsamples = 48\nvalue = [36, 8, 4]"] ;
28 -> 29 ;
30 [label="entropy = 0.906\nsamples = 45\nvalue = [36, 6, 3]"] ;
29 -> 30 ;
31 [label="entropy = 0.918\nsamples = 3\nvalue = [0, 2, 1]"] ;
29 -> 31 ;
32 [label="entropy = 0.918\nsamples = 3\nvalue = [0, 2, 1]"] ;
28 -> 32 ;
33 [label="entropy = 0.0\nsamples = 16\nvalue = [16, 0, 0]"] ;
21 -> 33 ;
34 [label="person just <= 0.5\nentropy = 0.971\nsamples = 10\nvalue = [0, 6, 4]"] ;
20 -> 34 ;
35 [label="potus <= 0.5\nentropy = 0.918\nsamples = 6\nvalue = [0, 2, 4]"] ;
34 -> 35 ;
36 [label="did <= 0.5\nentropy = 1.0\nsamples = 4\nvalue = [0, 2, 2]"] ;
35 -> 36 ;
37 [label="entropy = 1.0\nsamples = 2\nvalue = [0, 1, 1]"] ;
36 -> 37 ;
38 [label="entropy = 1.0\nsamples = 2\nvalue = [0, 1, 1]"] ;
36 -> 38 ;
39 [label="entropy = 0.0\nsamples = 2\nvalue = [0, 0, 2]"] ;
35 -> 39 ;
40 [label="entropy = 0.0\nsamples = 4\nvalue = [0, 4, 0]"] ;
34 -> 40 ;
41 [label="entropy = 0.0\nsamples = 4\nvalue = [0, 0, 4]"] ;
19 -> 41 ;
42 [label="entropy = 0.0\nsamples = 4\nvalue = [0, 0, 4]"] ;
18 -> 42 ;
43 [label="maga <= 0.5\nentropy = 0.503\nsamples = 9\nvalue = [0, 8, 1]"] ;
17 -> 43 ;
44 [label="potus <= 0.5\nentropy = 0.592\nsamples = 7\nvalue = [0, 6, 1]"] ;
43 -> 44 ;
45 [label="know <= 0.5\nentropy = 0.722\nsamples = 5\nvalue = [0, 4, 1]"] ;
44 -> 45 ;
46 [label="entropy = 0.918\nsamples = 3\nvalue = [0, 2, 1]"] ;
45 -> 46 ;
47 [label="entropy = 0.0\nsamples = 2\nvalue = [0, 2, 0]"] ;
45 -> 47 ;
48 [label="entropy = 0.0\nsamples = 2\nvalue = [0, 2, 0]"] ;
44 -> 48 ;
49 [label="entropy = 0.0\nsamples = 2\nvalue = [0, 2, 0]"] ;
43 -> 49 ;
50 [label="donaldtrump <= 0.5\nentropy = 0.503\nsamples = 9\nvalue = [0, 8, 1]"] ;
16 -> 50 ;
51 [label="entropy = 0.0\nsamples = 7\nvalue = [0, 7, 0]"] ;
50 -> 51 ;
52 [label="entropy = 1.0\nsamples = 2\nvalue = [0, 1, 1]"] ;
50 -> 52 ;
53 [label="entropy = 0.0\nsamples = 7\nvalue = [0, 7, 0]"] ;
15 -> 53 ;
54 [label="entropy = 0.0\nsamples = 7\nvalue = [0, 7, 0]"] ;
14 -> 54 ;
55 [label="qanon <= 0.5\nentropy = 0.592\nsamples = 7\nvalue = [0, 1, 6]"] ;
13 -> 55 ;
56 [label="entropy = 0.0\nsamples = 5\nvalue = [0, 0, 5]"] ;
55 -> 56 ;
57 [label="entropy = 1.0\nsamples = 2\nvalue = [0, 1, 1]"] ;
55 -> 57 ;
58 [label="entropy = 0.0\nsamples = 5\nvalue = [0, 0, 5]"] ;
12 -> 58 ;
59 [label="entropy = 0.0\nsamples = 5\nvalue = [0, 0, 5]"] ;
11 -> 59 ;
60 [label="coup <= 0.5\nentropy = 0.667\nsamples = 23\nvalue = [19, 4, 0]"] ;
10 -> 60 ;
61 [label="potus <= 0.5\nentropy = 0.918\nsamples = 12\nvalue = [8, 4, 0]"] ;
60 -> 61 ;
62 [label="american thinker <= 0.5\nentropy = 1.0\nsamples = 8\nvalue = [4, 4, 0]"] ;
61 -> 62 ;
63 [label="american people <= 0.5\nentropy = 0.971\nsamples = 5\nvalue = [2, 3, 0]"] ;
62 -> 63 ;
64 [label="entropy = 0.918\nsamples = 3\nvalue = [1, 2, 0]"] ;
63 -> 64 ;
65 [label="entropy = 1.0\nsamples = 2\nvalue = [1, 1, 0]"] ;
63 -> 65 ;
66 [label="entropy = 0.918\nsamples = 3\nvalue = [2, 1, 0]"] ;
62 -> 66 ;
67 [label="entropy = 0.0\nsamples = 4\nvalue = [4, 0, 0]"] ;
61 -> 67 ;
68 [label="entropy = 0.0\nsamples = 11\nvalue = [11, 0, 0]"] ;
60 -> 68 ;
69 [label="maxine waters <= 0.5\nentropy = 0.544\nsamples = 8\nvalue = [0, 1, 7]"] ;
9 -> 69 ;
70 [label="entropy = 0.0\nsamples = 6\nvalue = [0, 0, 6]"] ;
69 -> 70 ;
71 [label="entropy = 1.0\nsamples = 2\nvalue = [0, 1, 1]"] ;
69 -> 71 ;
72 [label="entropy = 0.0\nsamples = 6\nvalue = [0, 0, 6]"] ;
8 -> 72 ;
73 [label="handed outdated <= 0.5\nentropy = 0.874\nsamples = 17\nvalue = [0, 12, 5]"] ;
7 -> 73 ;
74 [label="nuclear <= 0.5\nentropy = 0.722\nsamples = 15\nvalue = [0, 12, 3]"] ;
73 -> 74 ;
75 [label="maga <= 0.5\nentropy = 0.391\nsamples = 13\nvalue = [0, 12, 1]"] ;
74 -> 75 ;
76 [label="d <= 0.5\nentropy = 0.544\nsamples = 8\nvalue = [0, 7, 1]"] ;
75 -> 76 ;
77 [label="potus <= 0.5\nentropy = 0.65\nsamples = 6\nvalue = [0, 5, 1]"] ;
76 -> 77 ;
78 [label="entropy = 0.811\nsamples = 4\nvalue = [0, 3, 1]"] ;
77 -> 78 ;
79 [label="entropy = 0.0\nsamples = 2\nvalue = [0, 2, 0]"] ;
77 -> 79 ;
80 [label="entropy = 0.0\nsamples = 2\nvalue = [0, 2, 0]"] ;
76 -> 80 ;
81 [label="entropy = 0.0\nsamples = 5\nvalue = [0, 5, 0]"] ;
75 -> 81 ;
82 [label="entropy = 0.0\nsamples = 2\nvalue = [0, 0, 2]"] ;
74 -> 82 ;
83 [label="entropy = 0.0\nsamples = 2\nvalue = [0, 0, 2]"] ;
73 -> 83 ;
84 [label="entropy = 0.0\nsamples = 7\nvalue = [0, 0, 7]"] ;
6 -> 84 ;
85 [label="entropy = 0.0\nsamples = 7\nvalue = [0, 0, 7]"] ;
5 -> 85 ;
86 [label="entropy = 0.0\nsamples = 8\nvalue = [0, 0, 8]"] ;
4 -> 86 ;
87 [label="grainsoftruth live <= 0.5\nentropy = 0.567\nsamples = 15\nvalue = [0, 13, 2]"] ;
3 -> 87 ;
88 [label="maga <= 0.5\nentropy = 0.684\nsamples = 11\nvalue = [0, 9, 2]"] ;
87 -> 88 ;
89 [label="overhead providing <= 0.5\nentropy = 0.863\nsamples = 7\nvalue = [0, 5, 2]"] ;
88 -> 89 ;
90 [label="entropy = 0.971\nsamples = 5\nvalue = [0, 3, 2]"] ;
89 -> 90 ;
91 [label="entropy = 0.0\nsamples = 2\nvalue = [0, 2, 0]"] ;
89 -> 91 ;
92 [label="entropy = 0.0\nsamples = 4\nvalue = [0, 4, 0]"] ;
88 -> 92 ;
93 [label="entropy = 0.0\nsamples = 4\nvalue = [0, 4, 0]"] ;
87 -> 93 ;
94 [label="entropy = 0.0\nsamples = 14\nvalue = [0, 14, 0]"] ;
2 -> 94 ;
95 [label="entropy = 0.0\nsamples = 11\nvalue = [0, 0, 11]"] ;
1 -> 95 ;
96 [label="entropy = 0.0\nsamples = 18\nvalue = [0, 18, 0]"] ;
0 -> 96 [labeldistance=2.5, labelangle=-45, headlabel="False"] ;
}
