digraph Tree {
node [shape=box] ;
0 [label="great <= 0.5\nentropy = 1.55\nsamples = 809\nvalue = [313, 308, 188]"] ;
1 [label="good <= 0.5\nentropy = 1.553\nsamples = 789\nvalue = [313, 288, 188]"] ;
0 -> 1 [labeldistance=2.5, labelangle=45, headlabel="True"] ;
2 [label="illegal <= 0.5\nentropy = 1.554\nsamples = 775\nvalue = [313, 274, 188]"] ;
1 -> 2 ;
3 [label="deep <= 0.5\nentropy = 1.548\nsamples = 764\nvalue = [313, 273, 178]"] ;
2 -> 3 ;
4 [label="crazy <= 0.5\nentropy = 1.552\nsamples = 751\nvalue = [300, 273, 178]"] ;
3 -> 4 ;
5 [label="sick <= 0.5\nentropy = 1.545\nsamples = 741\nvalue = [300, 272, 169]"] ;
4 -> 5 ;
6 [label="live <= 0.5\nentropy = 1.539\nsamples = 734\nvalue = [300, 272, 162]"] ;
5 -> 6 ;
7 [label="new <= 0.5\nentropy = 1.541\nsamples = 724\nvalue = [300, 262, 162]"] ;
6 -> 7 ;
8 [label="love <= 0.5\nentropy = 1.537\nsamples = 706\nvalue = [300, 249, 157]"] ;
7 -> 8 ;
9 [label="evil <= 0.5\nentropy = 1.537\nsamples = 697\nvalue = [300, 240, 157]"] ;
8 -> 9 ;
10 [label="entropy = 1.532\nsamples = 691\nvalue = [300, 240, 151]"] ;
9 -> 10 ;
11 [label="entropy = 0.0\nsamples = 6\nvalue = [0, 0, 6]"] ;
9 -> 11 ;
12 [label="entropy = 0.0\nsamples = 9\nvalue = [0, 9, 0]"] ;
8 -> 12 ;
13 [label="maga <= 0.5\nentropy = 0.852\nsamples = 18\nvalue = [0, 13, 5]"] ;
7 -> 13 ;
14 [label="entropy = 0.98\nsamples = 12\nvalue = [0, 7, 5]"] ;
13 -> 14 ;
15 [label="entropy = 0.0\nsamples = 6\nvalue = [0, 6, 0]"] ;
13 -> 15 ;
16 [label="entropy = 0.0\nsamples = 10\nvalue = [0, 10, 0]"] ;
6 -> 16 ;
17 [label="entropy = 0.0\nsamples = 7\nvalue = [0, 0, 7]"] ;
5 -> 17 ;
18 [label="entropy = 0.469\nsamples = 10\nvalue = [0, 1, 9]"] ;
4 -> 18 ;
19 [label="entropy = 0.0\nsamples = 13\nvalue = [13, 0, 0]"] ;
3 -> 19 ;
20 [label="entropy = 0.439\nsamples = 11\nvalue = [0, 1, 10]"] ;
2 -> 20 ;
21 [label="entropy = 0.0\nsamples = 14\nvalue = [0, 14, 0]"] ;
1 -> 21 ;
22 [label="entropy = 0.0\nsamples = 20\nvalue = [0, 20, 0]"] ;
0 -> 22 [labeldistance=2.5, labelangle=-45, headlabel="False"] ;
}
