digraph Tree {
node [shape=box] ;
0 [label="great <= 0.5\nentropy = 1.55\nsamples = 809\nvalue = [313, 308, 188]"] ;
1 [label="good <= 0.5\nentropy = 1.553\nsamples = 789\nvalue = [313, 288, 188]"] ;
0 -> 1 [labeldistance=2.5, labelangle=45, headlabel="True"] ;
2 [label="illegal <= 0.5\nentropy = 1.554\nsamples = 777\nvalue = [313, 276, 188]"] ;
1 -> 2 ;
3 [label="crazy <= 0.5\nentropy = 1.547\nsamples = 766\nvalue = [313, 275, 178]"] ;
2 -> 3 ;
4 [label="live <= 0.5\nentropy = 1.54\nsamples = 755\nvalue = [313, 274, 168]"] ;
3 -> 4 ;
5 [label="trumptrain <= 0.5\nentropy = 1.54\nsamples = 740\nvalue = [313, 260, 167]"] ;
4 -> 5 ;
6 [label="hard <= 0.5\nentropy = 1.552\nsamples = 684\nvalue = [273, 249, 162]"] ;
5 -> 6 ;
7 [label="new <= 0.5\nentropy = 1.545\nsamples = 675\nvalue = [273, 248, 154]"] ;
6 -> 7 ;
8 [label="sick <= 0.5\nentropy = 1.542\nsamples = 658\nvalue = [273, 236, 149]"] ;
7 -> 8 ;
9 [label="evil <= 0.5\nentropy = 1.537\nsamples = 652\nvalue = [273, 236, 143]"] ;
8 -> 9 ;
10 [label="dangerous <= 0.5\nentropy = 1.53\nsamples = 646\nvalue = [273, 236, 137]"] ;
9 -> 10 ;
11 [label="bad <= 0.5\nentropy = 1.523\nsamples = 640\nvalue = [273, 236, 131]"] ;
10 -> 11 ;
12 [label="entropy = 1.516\nsamples = 634\nvalue = [273, 236, 125]"] ;
11 -> 12 ;
13 [label="entropy = 0.0\nsamples = 6\nvalue = [0, 0, 6]"] ;
11 -> 13 ;
14 [label="entropy = 0.0\nsamples = 6\nvalue = [0, 0, 6]"] ;
10 -> 14 ;
15 [label="entropy = 0.0\nsamples = 6\nvalue = [0, 0, 6]"] ;
9 -> 15 ;
16 [label="entropy = 0.0\nsamples = 6\nvalue = [0, 0, 6]"] ;
8 -> 16 ;
17 [label="barack <= 0.5\nentropy = 0.874\nsamples = 17\nvalue = [0, 12, 5]"] ;
7 -> 17 ;
18 [label="outdated <= 0.5\nentropy = 0.722\nsamples = 15\nvalue = [0, 12, 3]"] ;
17 -> 18 ;
19 [label="vile <= 0.5\nentropy = 0.592\nsamples = 14\nvalue = [0, 12, 2]"] ;
18 -> 19 ;
20 [label="nuclear <= 0.5\nentropy = 0.391\nsamples = 13\nvalue = [0, 12, 1]"] ;
19 -> 20 ;
21 [label="entropy = 0.0\nsamples = 12\nvalue = [0, 12, 0]"] ;
20 -> 21 ;
22 [label="entropy = 0.0\nsamples = 1\nvalue = [0, 0, 1]"] ;
20 -> 22 ;
23 [label="entropy = 0.0\nsamples = 1\nvalue = [0, 0, 1]"] ;
19 -> 23 ;
24 [label="entropy = 0.0\nsamples = 1\nvalue = [0, 0, 1]"] ;
18 -> 24 ;
25 [label="entropy = 0.0\nsamples = 2\nvalue = [0, 0, 2]"] ;
17 -> 25 ;
26 [label="truth <= 0.5\nentropy = 0.503\nsamples = 9\nvalue = [0, 1, 8]"] ;
6 -> 26 ;
27 [label="entropy = 0.0\nsamples = 8\nvalue = [0, 0, 8]"] ;
26 -> 27 ;
28 [label="entropy = 0.0\nsamples = 1\nvalue = [0, 1, 0]"] ;
26 -> 28 ;
29 [label="trumptrain maga <= 0.5\nentropy = 1.119\nsamples = 56\nvalue = [40, 11, 5]"] ;
5 -> 29 ;
30 [label="support <= 0.5\nentropy = 0.967\nsamples = 52\nvalue = [40, 9, 3]"] ;
29 -> 30 ;
31 [label="gop <= 0.5\nentropy = 0.898\nsamples = 50\nvalue = [40, 7, 3]"] ;
30 -> 31 ;
32 [label="rolling track <= 0.5\nentropy = 0.785\nsamples = 48\nvalue = [40, 6, 2]"] ;
31 -> 32 ;
33 [label="fool <= 0.5\nentropy = 0.695\nsamples = 47\nvalue = [40, 6, 1]"] ;
32 -> 33 ;
34 [label="ok <= 0.5\nentropy = 0.559\nsamples = 46\nvalue = [40, 6, 0]"] ;
33 -> 34 ;
35 [label="entropy = 0.503\nsamples = 45\nvalue = [40, 5, 0]"] ;
34 -> 35 ;
36 [label="entropy = 0.0\nsamples = 1\nvalue = [0, 1, 0]"] ;
34 -> 36 ;
37 [label="entropy = 0.0\nsamples = 1\nvalue = [0, 0, 1]"] ;
33 -> 37 ;
38 [label="entropy = 0.0\nsamples = 1\nvalue = [0, 0, 1]"] ;
32 -> 38 ;
39 [label="words <= 0.5\nentropy = 1.0\nsamples = 2\nvalue = [0, 1, 1]"] ;
31 -> 39 ;
40 [label="entropy = 0.0\nsamples = 1\nvalue = [0, 0, 1]"] ;
39 -> 40 ;
41 [label="entropy = 0.0\nsamples = 1\nvalue = [0, 1, 0]"] ;
39 -> 41 ;
42 [label="entropy = 0.0\nsamples = 2\nvalue = [0, 2, 0]"] ;
30 -> 42 ;
43 [label="obama <= 1.0\nentropy = 1.0\nsamples = 4\nvalue = [0, 2, 2]"] ;
29 -> 43 ;
44 [label="going <= 0.5\nentropy = 0.918\nsamples = 3\nvalue = [0, 2, 1]"] ;
43 -> 44 ;
45 [label="entropy = 0.0\nsamples = 2\nvalue = [0, 2, 0]"] ;
44 -> 45 ;
46 [label="entropy = 0.0\nsamples = 1\nvalue = [0, 0, 1]"] ;
44 -> 46 ;
47 [label="entropy = 0.0\nsamples = 1\nvalue = [0, 0, 1]"] ;
43 -> 47 ;
48 [label="unfortunate live <= 0.5\nentropy = 0.353\nsamples = 15\nvalue = [0, 14, 1]"] ;
4 -> 48 ;
49 [label="entropy = 0.0\nsamples = 14\nvalue = [0, 14, 0]"] ;
48 -> 49 ;
50 [label="entropy = 0.0\nsamples = 1\nvalue = [0, 0, 1]"] ;
48 -> 50 ;
51 [label="best <= 0.5\nentropy = 0.439\nsamples = 11\nvalue = [0, 1, 10]"] ;
3 -> 51 ;
52 [label="entropy = 0.0\nsamples = 10\nvalue = [0, 0, 10]"] ;
51 -> 52 ;
53 [label="entropy = 0.0\nsamples = 1\nvalue = [0, 1, 0]"] ;
51 -> 53 ;
54 [label="hillary <= 0.5\nentropy = 0.439\nsamples = 11\nvalue = [0, 1, 10]"] ;
2 -> 54 ;
55 [label="entropy = 0.0\nsamples = 10\nvalue = [0, 0, 10]"] ;
54 -> 55 ;
56 [label="entropy = 0.0\nsamples = 1\nvalue = [0, 1, 0]"] ;
54 -> 56 ;
57 [label="entropy = 0.0\nsamples = 12\nvalue = [0, 12, 0]"] ;
1 -> 57 ;
58 [label="entropy = 0.0\nsamples = 20\nvalue = [0, 20, 0]"] ;
0 -> 58 [labeldistance=2.5, labelangle=-45, headlabel="False"] ;
}
