digraph Tree {
node [shape=box] ;
0 [label="great <= 0.5\nentropy = 1.55\nsamples = 810\nvalue = [314, 308, 188]"] ;
1 [label="illegal <= 0.5\nentropy = 1.552\nsamples = 792\nvalue = [314, 290, 188]"] ;
0 -> 1 [labeldistance=2.5, labelangle=45, headlabel="True"] ;
2 [label="good <= 0.5\nentropy = 1.545\nsamples = 781\nvalue = [314, 290, 177]"] ;
1 -> 2 ;
3 [label="live <= 0.5\nentropy = 1.546\nsamples = 767\nvalue = [314, 276, 177]"] ;
2 -> 3 ;
4 [label="bad <= 0.5\nentropy = 1.546\nsamples = 752\nvalue = [314, 263, 175]"] ;
3 -> 4 ;
5 [label="evil <= 0.5\nentropy = 1.539\nsamples = 744\nvalue = [314, 263, 167]"] ;
4 -> 5 ;
6 [label="jail <= 0.5\nentropy = 1.533\nsamples = 737\nvalue = [314, 263, 160]"] ;
5 -> 6 ;
7 [label="entropy = 1.527\nsamples = 730\nvalue = [314, 263, 153]"] ;
6 -> 7 ;
8 [label="entropy = 0.0\nsamples = 7\nvalue = [0, 0, 7]"] ;
6 -> 8 ;
9 [label="entropy = 0.0\nsamples = 7\nvalue = [0, 0, 7]"] ;
5 -> 9 ;
10 [label="entropy = 0.0\nsamples = 8\nvalue = [0, 0, 8]"] ;
4 -> 10 ;
11 [label="maga <= 0.5\nentropy = 0.567\nsamples = 15\nvalue = [0, 13, 2]"] ;
3 -> 11 ;
12 [label="grainsoftruth <= 0.5\nentropy = 0.684\nsamples = 11\nvalue = [0, 9, 2]"] ;
11 -> 12 ;
13 [label="obama <= 0.5\nentropy = 0.863\nsamples = 7\nvalue = [0, 5, 2]"] ;
12 -> 13 ;
14 [label="entropy = 0.811\nsamples = 4\nvalue = [0, 3, 1]"] ;
13 -> 14 ;
15 [label="entropy = 0.918\nsamples = 3\nvalue = [0, 2, 1]"] ;
13 -> 15 ;
16 [label="entropy = 0.0\nsamples = 4\nvalue = [0, 4, 0]"] ;
12 -> 16 ;
17 [label="entropy = 0.0\nsamples = 4\nvalue = [0, 4, 0]"] ;
11 -> 17 ;
18 [label="entropy = 0.0\nsamples = 14\nvalue = [0, 14, 0]"] ;
2 -> 18 ;
19 [label="entropy = 0.0\nsamples = 11\nvalue = [0, 0, 11]"] ;
1 -> 19 ;
20 [label="entropy = 0.0\nsamples = 18\nvalue = [0, 18, 0]"] ;
0 -> 20 [labeldistance=2.5, labelangle=-45, headlabel="False"] ;
}
