digraph Tree {
node [shape=box] ;
0 [label="great <= 0.5\nentropy = 1.55\nsamples = 809\nvalue = [313, 308, 188]"] ;
1 [label="good <= 0.5\nentropy = 1.553\nsamples = 789\nvalue = [313, 288, 188]"] ;
0 -> 1 [labeldistance=2.5, labelangle=45, headlabel="True"] ;
2 [label="illegal <= 0.5\nentropy = 1.554\nsamples = 775\nvalue = [313, 274, 188]"] ;
1 -> 2 ;
3 [label="deep <= 0.5\nentropy = 1.548\nsamples = 764\nvalue = [313, 273, 178]"] ;
2 -> 3 ;
4 [label="crazy <= 0.5\nentropy = 1.552\nsamples = 751\nvalue = [300, 273, 178]"] ;
3 -> 4 ;
5 [label="sick <= 0.5\nentropy = 1.545\nsamples = 741\nvalue = [300, 272, 169]"] ;
4 -> 5 ;
6 [label="live <= 0.5\nentropy = 1.539\nsamples = 734\nvalue = [300, 272, 162]"] ;
5 -> 6 ;
7 [label="new <= 0.5\nentropy = 1.541\nsamples = 724\nvalue = [300, 262, 162]"] ;
6 -> 7 ;
8 [label="love <= 0.5\nentropy = 1.537\nsamples = 706\nvalue = [300, 249, 157]"] ;
7 -> 8 ;
9 [label="evil <= 0.5\nentropy = 1.537\nsamples = 697\nvalue = [300, 240, 157]"] ;
8 -> 9 ;
10 [label="hard <= 0.5\nentropy = 1.532\nsamples = 691\nvalue = [300, 240, 151]"] ;
9 -> 10 ;
11 [label="job <= 0.5\nentropy = 1.525\nsamples = 683\nvalue = [300, 239, 144]"] ;
10 -> 11 ;
12 [label="backfiretrump <= 0.5\nentropy = 1.517\nsamples = 670\nvalue = [300, 233, 137]"] ;
11 -> 12 ;
13 [label="really <= 0.5\nentropy = 1.524\nsamples = 653\nvalue = [284, 233, 136]"] ;
12 -> 13 ;
14 [label="pathetic <= 0.5\nentropy = 1.522\nsamples = 641\nvalue = [284, 223, 134]"] ;
13 -> 14 ;
15 [label="entropy = 1.516\nsamples = 636\nvalue = [284, 223, 129]"] ;
14 -> 15 ;
16 [label="entropy = 0.0\nsamples = 5\nvalue = [0, 0, 5]"] ;
14 -> 16 ;
17 [label="day november <= 0.5\nentropy = 0.65\nsamples = 12\nvalue = [0, 10, 2]"] ;
13 -> 17 ;
18 [label="entropy = 0.0\nsamples = 10\nvalue = [0, 10, 0]"] ;
17 -> 18 ;
19 [label="entropy = 0.0\nsamples = 2\nvalue = [0, 0, 2]"] ;
17 -> 19 ;
20 [label="suffering <= 0.5\nentropy = 0.323\nsamples = 17\nvalue = [16, 0, 1]"] ;
12 -> 20 ;
21 [label="potus time <= 0.5\nentropy = 0.592\nsamples = 7\nvalue = [6, 0, 1]"] ;
20 -> 21 ;
22 [label="entropy = 0.918\nsamples = 3\nvalue = [2, 0, 1]"] ;
21 -> 22 ;
23 [label="entropy = 0.0\nsamples = 4\nvalue = [4, 0, 0]"] ;
21 -> 23 ;
24 [label="entropy = 0.0\nsamples = 10\nvalue = [10, 0, 0]"] ;
20 -> 24 ;
25 [label="person just <= 0.5\nentropy = 0.996\nsamples = 13\nvalue = [0, 6, 7]"] ;
11 -> 25 ;
26 [label="air <= 0.5\nentropy = 0.544\nsamples = 8\nvalue = [0, 1, 7]"] ;
25 -> 26 ;
27 [label="potus <= 0.5\nentropy = 0.65\nsamples = 6\nvalue = [0, 1, 5]"] ;
26 -> 27 ;
28 [label="entropy = 0.811\nsamples = 4\nvalue = [0, 1, 3]"] ;
27 -> 28 ;
29 [label="entropy = 0.0\nsamples = 2\nvalue = [0, 0, 2]"] ;
27 -> 29 ;
30 [label="entropy = 0.0\nsamples = 2\nvalue = [0, 0, 2]"] ;
26 -> 30 ;
31 [label="entropy = 0.0\nsamples = 5\nvalue = [0, 5, 0]"] ;
25 -> 31 ;
32 [label="potus <= 0.5\nentropy = 0.544\nsamples = 8\nvalue = [0, 1, 7]"] ;
10 -> 32 ;
33 [label="entropy = 0.0\nsamples = 6\nvalue = [0, 0, 6]"] ;
32 -> 33 ;
34 [label="entropy = 1.0\nsamples = 2\nvalue = [0, 1, 1]"] ;
32 -> 34 ;
35 [label="entropy = 0.0\nsamples = 6\nvalue = [0, 0, 6]"] ;
9 -> 35 ;
36 [label="entropy = 0.0\nsamples = 9\nvalue = [0, 9, 0]"] ;
8 -> 36 ;
37 [label="care <= 0.5\nentropy = 0.852\nsamples = 18\nvalue = [0, 13, 5]"] ;
7 -> 37 ;
38 [label="trillion <= 0.5\nentropy = 0.696\nsamples = 16\nvalue = [0, 13, 3]"] ;
37 -> 38 ;
39 [label="day <= 0.5\nentropy = 0.371\nsamples = 14\nvalue = [0, 13, 1]"] ;
38 -> 39 ;
40 [label="entropy = 0.0\nsamples = 12\nvalue = [0, 12, 0]"] ;
39 -> 40 ;
41 [label="entropy = 1.0\nsamples = 2\nvalue = [0, 1, 1]"] ;
39 -> 41 ;
42 [label="entropy = 0.0\nsamples = 2\nvalue = [0, 0, 2]"] ;
38 -> 42 ;
43 [label="entropy = 0.0\nsamples = 2\nvalue = [0, 0, 2]"] ;
37 -> 43 ;
44 [label="entropy = 0.0\nsamples = 10\nvalue = [0, 10, 0]"] ;
6 -> 44 ;
45 [label="entropy = 0.0\nsamples = 7\nvalue = [0, 0, 7]"] ;
5 -> 45 ;
46 [label="maxine <= 0.5\nentropy = 0.469\nsamples = 10\nvalue = [0, 1, 9]"] ;
4 -> 46 ;
47 [label="entropy = 0.0\nsamples = 8\nvalue = [0, 0, 8]"] ;
46 -> 47 ;
48 [label="entropy = 1.0\nsamples = 2\nvalue = [0, 1, 1]"] ;
46 -> 48 ;
49 [label="entropy = 0.0\nsamples = 13\nvalue = [13, 0, 0]"] ;
3 -> 49 ;
50 [label="illegal aliens <= 0.5\nentropy = 0.439\nsamples = 11\nvalue = [0, 1, 10]"] ;
2 -> 50 ;
51 [label="crime <= 0.5\nentropy = 0.544\nsamples = 8\nvalue = [0, 1, 7]"] ;
50 -> 51 ;
52 [label="illegal immigrant <= 0.5\nentropy = 0.65\nsamples = 6\nvalue = [0, 1, 5]"] ;
51 -> 52 ;
53 [label="entropy = 0.811\nsamples = 4\nvalue = [0, 1, 3]"] ;
52 -> 53 ;
54 [label="entropy = 0.0\nsamples = 2\nvalue = [0, 0, 2]"] ;
52 -> 54 ;
55 [label="entropy = 0.0\nsamples = 2\nvalue = [0, 0, 2]"] ;
51 -> 55 ;
56 [label="entropy = 0.0\nsamples = 3\nvalue = [0, 0, 3]"] ;
50 -> 56 ;
57 [label="entropy = 0.0\nsamples = 14\nvalue = [0, 14, 0]"] ;
1 -> 57 ;
58 [label="entropy = 0.0\nsamples = 20\nvalue = [0, 20, 0]"] ;
0 -> 58 [labeldistance=2.5, labelangle=-45, headlabel="False"] ;
}
