digraph Tree {
node [shape=box] ;
0 [label="great <= 0.5\nentropy = 1.55\nsamples = 809\nvalue = [313, 308, 188]"] ;
1 [label="good <= 0.5\nentropy = 1.553\nsamples = 789\nvalue = [313, 288, 188]"] ;
0 -> 1 [labeldistance=2.5, labelangle=45, headlabel="True"] ;
2 [label="illegal <= 0.5\nentropy = 1.554\nsamples = 777\nvalue = [313, 276, 188]"] ;
1 -> 2 ;
3 [label="crazy <= 0.5\nentropy = 1.547\nsamples = 766\nvalue = [313, 275, 178]"] ;
2 -> 3 ;
4 [label="live <= 0.5\nentropy = 1.54\nsamples = 755\nvalue = [313, 274, 168]"] ;
3 -> 4 ;
5 [label="trumptrain <= 0.5\nentropy = 1.54\nsamples = 740\nvalue = [313, 260, 167]"] ;
4 -> 5 ;
6 [label="hard <= 0.5\nentropy = 1.552\nsamples = 684\nvalue = [273, 249, 162]"] ;
5 -> 6 ;
7 [label="new <= 0.5\nentropy = 1.545\nsamples = 675\nvalue = [273, 248, 154]"] ;
6 -> 7 ;
8 [label="entropy = 1.542\nsamples = 658\nvalue = [273, 236, 149]"] ;
7 -> 8 ;
9 [label="entropy = 0.874\nsamples = 17\nvalue = [0, 12, 5]"] ;
7 -> 9 ;
10 [label="entropy = 0.503\nsamples = 9\nvalue = [0, 1, 8]"] ;
6 -> 10 ;
11 [label="trumptrain maga <= 0.5\nentropy = 1.119\nsamples = 56\nvalue = [40, 11, 5]"] ;
5 -> 11 ;
12 [label="rev trumptrain <= 0.5\nentropy = 0.967\nsamples = 52\nvalue = [40, 9, 3]"] ;
11 -> 12 ;
13 [label="entropy = 1.053\nsamples = 45\nvalue = [33, 9, 3]"] ;
12 -> 13 ;
14 [label="entropy = 0.0\nsamples = 7\nvalue = [7, 0, 0]"] ;
12 -> 14 ;
15 [label="entropy = 1.0\nsamples = 4\nvalue = [0, 2, 2]"] ;
11 -> 15 ;
16 [label="inaugural <= 0.5\nentropy = 0.353\nsamples = 15\nvalue = [0, 14, 1]"] ;
4 -> 16 ;
17 [label="maga <= 0.5\nentropy = 0.439\nsamples = 11\nvalue = [0, 10, 1]"] ;
16 -> 17 ;
18 [label="entropy = 0.592\nsamples = 7\nvalue = [0, 6, 1]"] ;
17 -> 18 ;
19 [label="entropy = 0.0\nsamples = 4\nvalue = [0, 4, 0]"] ;
17 -> 19 ;
20 [label="entropy = 0.0\nsamples = 4\nvalue = [0, 4, 0]"] ;
16 -> 20 ;
21 [label="waters <= 0.5\nentropy = 0.439\nsamples = 11\nvalue = [0, 1, 10]"] ;
3 -> 21 ;
22 [label="entropy = 0.0\nsamples = 7\nvalue = [0, 0, 7]"] ;
21 -> 22 ;
23 [label="entropy = 0.811\nsamples = 4\nvalue = [0, 1, 3]"] ;
21 -> 23 ;
24 [label="mollietibbetts <= 0.5\nentropy = 0.439\nsamples = 11\nvalue = [0, 1, 10]"] ;
2 -> 24 ;
25 [label="entropy = 0.592\nsamples = 7\nvalue = [0, 1, 6]"] ;
24 -> 25 ;
26 [label="entropy = 0.0\nsamples = 4\nvalue = [0, 0, 4]"] ;
24 -> 26 ;
27 [label="entropy = 0.0\nsamples = 12\nvalue = [0, 12, 0]"] ;
1 -> 27 ;
28 [label="entropy = 0.0\nsamples = 20\nvalue = [0, 20, 0]"] ;
0 -> 28 [labeldistance=2.5, labelangle=-45, headlabel="False"] ;
}
