digraph Tree {
node [shape=box] ;
0 [label="great <= 0.5\nentropy = 1.55\nsamples = 810\nvalue = [314, 308, 188]"] ;
1 [label="illegal <= 0.5\nentropy = 1.553\nsamples = 790\nvalue = [314, 288, 188]"] ;
0 -> 1 [labeldistance=2.5, labelangle=45, headlabel="True"] ;
2 [label="good <= 0.5\nentropy = 1.544\nsamples = 777\nvalue = [314, 287, 176]"] ;
1 -> 2 ;
3 [label="new <= 0.5\nentropy = 1.546\nsamples = 766\nvalue = [314, 276, 176]"] ;
2 -> 3 ;
4 [label="jail <= 0.5\nentropy = 1.542\nsamples = 747\nvalue = [314, 263, 170]"] ;
3 -> 4 ;
5 [label="sick <= 0.5\nentropy = 1.536\nsamples = 740\nvalue = [314, 263, 163]"] ;
4 -> 5 ;
6 [label="hard <= 0.5\nentropy = 1.53\nsamples = 733\nvalue = [314, 263, 156]"] ;
5 -> 6 ;
7 [label="entropy = 1.523\nsamples = 726\nvalue = [314, 263, 149]"] ;
6 -> 7 ;
8 [label="entropy = 0.0\nsamples = 7\nvalue = [0, 0, 7]"] ;
6 -> 8 ;
9 [label="entropy = 0.0\nsamples = 7\nvalue = [0, 0, 7]"] ;
5 -> 9 ;
10 [label="entropy = 0.0\nsamples = 7\nvalue = [0, 0, 7]"] ;
4 -> 10 ;
11 [label="maga <= 0.5\nentropy = 0.9\nsamples = 19\nvalue = [0, 13, 6]"] ;
3 -> 11 ;
12 [label="times <= 0.5\nentropy = 0.971\nsamples = 15\nvalue = [0, 9, 6]"] ;
11 -> 12 ;
13 [label="entropy = 0.918\nsamples = 12\nvalue = [0, 8, 4]"] ;
12 -> 13 ;
14 [label="entropy = 0.918\nsamples = 3\nvalue = [0, 1, 2]"] ;
12 -> 14 ;
15 [label="entropy = 0.0\nsamples = 4\nvalue = [0, 4, 0]"] ;
11 -> 15 ;
16 [label="entropy = 0.0\nsamples = 11\nvalue = [0, 11, 0]"] ;
2 -> 16 ;
17 [label="lie <= 0.5\nentropy = 0.391\nsamples = 13\nvalue = [0, 1, 12]"] ;
1 -> 17 ;
18 [label="killed <= 0.5\nentropy = 0.544\nsamples = 8\nvalue = [0, 1, 7]"] ;
17 -> 18 ;
19 [label="entropy = 0.722\nsamples = 5\nvalue = [0, 1, 4]"] ;
18 -> 19 ;
20 [label="entropy = 0.0\nsamples = 3\nvalue = [0, 0, 3]"] ;
18 -> 20 ;
21 [label="entropy = 0.0\nsamples = 5\nvalue = [0, 0, 5]"] ;
17 -> 21 ;
22 [label="entropy = 0.0\nsamples = 20\nvalue = [0, 20, 0]"] ;
0 -> 22 [labeldistance=2.5, labelangle=-45, headlabel="False"] ;
}
