digraph Tree {
node [shape=box] ;
0 [label="great <= 0.5\nentropy = 1.55\nsamples = 809\nvalue = [313, 308, 188]"] ;
1 [label="good <= 0.5\nentropy = 1.553\nsamples = 789\nvalue = [313, 288, 188]"] ;
0 -> 1 [labeldistance=2.5, labelangle=45, headlabel="True"] ;
2 [label="illegal <= 0.5\nentropy = 1.554\nsamples = 777\nvalue = [313, 276, 188]"] ;
1 -> 2 ;
3 [label="crazy <= 0.5\nentropy = 1.547\nsamples = 766\nvalue = [313, 275, 178]"] ;
2 -> 3 ;
4 [label="live <= 0.5\nentropy = 1.54\nsamples = 755\nvalue = [313, 274, 168]"] ;
3 -> 4 ;
5 [label="trumptrain <= 0.5\nentropy = 1.54\nsamples = 740\nvalue = [313, 260, 167]"] ;
4 -> 5 ;
6 [label="hard <= 0.5\nentropy = 1.552\nsamples = 684\nvalue = [273, 249, 162]"] ;
5 -> 6 ;
7 [label="new <= 0.5\nentropy = 1.545\nsamples = 675\nvalue = [273, 248, 154]"] ;
6 -> 7 ;
8 [label="sick <= 0.5\nentropy = 1.542\nsamples = 658\nvalue = [273, 236, 149]"] ;
7 -> 8 ;
9 [label="evil <= 0.5\nentropy = 1.537\nsamples = 652\nvalue = [273, 236, 143]"] ;
8 -> 9 ;
10 [label="dangerous <= 0.5\nentropy = 1.53\nsamples = 646\nvalue = [273, 236, 137]"] ;
9 -> 10 ;
11 [label="bad <= 0.5\nentropy = 1.523\nsamples = 640\nvalue = [273, 236, 131]"] ;
10 -> 11 ;
12 [label="shooting <= 0.5\nentropy = 1.516\nsamples = 634\nvalue = [273, 236, 125]"] ;
11 -> 12 ;
13 [label="pathetic <= 0.5\nentropy = 1.521\nsamples = 624\nvalue = [263, 236, 125]"] ;
12 -> 13 ;
14 [label="entropy = 1.514\nsamples = 619\nvalue = [263, 236, 120]"] ;
13 -> 14 ;
15 [label="entropy = 0.0\nsamples = 5\nvalue = [0, 0, 5]"] ;
13 -> 15 ;
16 [label="entropy = 0.0\nsamples = 10\nvalue = [10, 0, 0]"] ;
12 -> 16 ;
17 [label="entropy = 0.0\nsamples = 6\nvalue = [0, 0, 6]"] ;
11 -> 17 ;
18 [label="entropy = 0.0\nsamples = 6\nvalue = [0, 0, 6]"] ;
10 -> 18 ;
19 [label="entropy = 0.0\nsamples = 6\nvalue = [0, 0, 6]"] ;
9 -> 19 ;
20 [label="entropy = 0.0\nsamples = 6\nvalue = [0, 0, 6]"] ;
8 -> 20 ;
21 [label="nuclear new <= 0.5\nentropy = 0.874\nsamples = 17\nvalue = [0, 12, 5]"] ;
7 -> 21 ;
22 [label="new qanon <= 0.5\nentropy = 0.722\nsamples = 15\nvalue = [0, 12, 3]"] ;
21 -> 22 ;
23 [label="york times <= 0.5\nentropy = 0.845\nsamples = 11\nvalue = [0, 8, 3]"] ;
22 -> 23 ;
24 [label="entropy = 0.764\nsamples = 9\nvalue = [0, 7, 2]"] ;
23 -> 24 ;
25 [label="entropy = 1.0\nsamples = 2\nvalue = [0, 1, 1]"] ;
23 -> 25 ;
26 [label="entropy = 0.0\nsamples = 4\nvalue = [0, 4, 0]"] ;
22 -> 26 ;
27 [label="entropy = 0.0\nsamples = 2\nvalue = [0, 0, 2]"] ;
21 -> 27 ;
28 [label="qanon <= 0.5\nentropy = 0.503\nsamples = 9\nvalue = [0, 1, 8]"] ;
6 -> 28 ;
29 [label="entropy = 0.0\nsamples = 7\nvalue = [0, 0, 7]"] ;
28 -> 29 ;
30 [label="entropy = 1.0\nsamples = 2\nvalue = [0, 1, 1]"] ;
28 -> 30 ;
31 [label="trumptrain maga <= 0.5\nentropy = 1.119\nsamples = 56\nvalue = [40, 11, 5]"] ;
5 -> 31 ;
32 [label="support <= 0.5\nentropy = 0.967\nsamples = 52\nvalue = [40, 9, 3]"] ;
31 -> 32 ;
33 [label="gop <= 0.5\nentropy = 0.898\nsamples = 50\nvalue = [40, 7, 3]"] ;
32 -> 33 ;
34 [label="trumptrain rolling <= 0.5\nentropy = 0.785\nsamples = 48\nvalue = [40, 6, 2]"] ;
33 -> 34 ;
35 [label="makeamericagreatagain <= 0.5\nentropy = 0.705\nsamples = 46\nvalue = [39, 6, 1]"] ;
34 -> 35 ;
36 [label="rev <= 0.5\nentropy = 0.592\nsamples = 42\nvalue = [36, 6, 0]"] ;
35 -> 36 ;
37 [label="maga trumptrain <= 0.5\nentropy = 0.661\nsamples = 35\nvalue = [29, 6, 0]"] ;
36 -> 37 ;
38 [label="trump <= 0.5\nentropy = 0.75\nsamples = 28\nvalue = [22, 6, 0]"] ;
37 -> 38 ;
39 [label="entropy = 0.828\nsamples = 23\nvalue = [17, 6, 0]"] ;
38 -> 39 ;
40 [label="entropy = 0.0\nsamples = 5\nvalue = [5, 0, 0]"] ;
38 -> 40 ;
41 [label="entropy = 0.0\nsamples = 7\nvalue = [7, 0, 0]"] ;
37 -> 41 ;
42 [label="entropy = 0.0\nsamples = 7\nvalue = [7, 0, 0]"] ;
36 -> 42 ;
43 [label="maga <= 0.5\nentropy = 0.811\nsamples = 4\nvalue = [3, 0, 1]"] ;
35 -> 43 ;
44 [label="entropy = 1.0\nsamples = 2\nvalue = [1, 0, 1]"] ;
43 -> 44 ;
45 [label="entropy = 0.0\nsamples = 2\nvalue = [2, 0, 0]"] ;
43 -> 45 ;
46 [label="entropy = 1.0\nsamples = 2\nvalue = [1, 0, 1]"] ;
34 -> 46 ;
47 [label="entropy = 1.0\nsamples = 2\nvalue = [0, 1, 1]"] ;
33 -> 47 ;
48 [label="entropy = 0.0\nsamples = 2\nvalue = [0, 2, 0]"] ;
32 -> 48 ;
49 [label="doing <= 0.5\nentropy = 1.0\nsamples = 4\nvalue = [0, 2, 2]"] ;
31 -> 49 ;
50 [label="entropy = 1.0\nsamples = 2\nvalue = [0, 1, 1]"] ;
49 -> 50 ;
51 [label="entropy = 1.0\nsamples = 2\nvalue = [0, 1, 1]"] ;
49 -> 51 ;
52 [label="introducing <= 0.5\nentropy = 0.353\nsamples = 15\nvalue = [0, 14, 1]"] ;
4 -> 52 ;
53 [label="maga <= 0.5\nentropy = 0.439\nsamples = 11\nvalue = [0, 10, 1]"] ;
52 -> 53 ;
54 [label="benghazi stand <= 0.5\nentropy = 0.592\nsamples = 7\nvalue = [0, 6, 1]"] ;
53 -> 54 ;
55 [label="news <= 0.5\nentropy = 0.722\nsamples = 5\nvalue = [0, 4, 1]"] ;
54 -> 55 ;
56 [label="entropy = 0.918\nsamples = 3\nvalue = [0, 2, 1]"] ;
55 -> 56 ;
57 [label="entropy = 0.0\nsamples = 2\nvalue = [0, 2, 0]"] ;
55 -> 57 ;
58 [label="entropy = 0.0\nsamples = 2\nvalue = [0, 2, 0]"] ;
54 -> 58 ;
59 [label="entropy = 0.0\nsamples = 4\nvalue = [0, 4, 0]"] ;
53 -> 59 ;
60 [label="entropy = 0.0\nsamples = 4\nvalue = [0, 4, 0]"] ;
52 -> 60 ;
61 [label="maxine waters <= 0.5\nentropy = 0.439\nsamples = 11\nvalue = [0, 1, 10]"] ;
3 -> 61 ;
62 [label="entropy = 0.0\nsamples = 9\nvalue = [0, 0, 9]"] ;
61 -> 62 ;
63 [label="entropy = 1.0\nsamples = 2\nvalue = [0, 1, 1]"] ;
61 -> 63 ;
64 [label="rate lie <= 0.5\nentropy = 0.439\nsamples = 11\nvalue = [0, 1, 10]"] ;
2 -> 64 ;
65 [label="buildthatwall <= 0.5\nentropy = 0.592\nsamples = 7\nvalue = [0, 1, 6]"] ;
64 -> 65 ;
66 [label="entropy = 0.811\nsamples = 4\nvalue = [0, 1, 3]"] ;
65 -> 66 ;
67 [label="entropy = 0.0\nsamples = 3\nvalue = [0, 0, 3]"] ;
65 -> 67 ;
68 [label="entropy = 0.0\nsamples = 4\nvalue = [0, 0, 4]"] ;
64 -> 68 ;
69 [label="entropy = 0.0\nsamples = 12\nvalue = [0, 12, 0]"] ;
1 -> 69 ;
70 [label="entropy = 0.0\nsamples = 20\nvalue = [0, 20, 0]"] ;
0 -> 70 [labeldistance=2.5, labelangle=-45, headlabel="False"] ;
}
