digraph Tree {
node [shape=box] ;
0 [label="great <= 0.5\nentropy = 1.55\nsamples = 809\nvalue = [313, 308, 188]"] ;
1 [label="good <= 0.5\nentropy = 1.553\nsamples = 789\nvalue = [313, 288, 188]"] ;
0 -> 1 [labeldistance=2.5, labelangle=45, headlabel="True"] ;
2 [label="illegal <= 0.5\nentropy = 1.554\nsamples = 777\nvalue = [313, 276, 188]"] ;
1 -> 2 ;
3 [label="crazy <= 0.5\nentropy = 1.547\nsamples = 766\nvalue = [313, 275, 178]"] ;
2 -> 3 ;
4 [label="live <= 0.5\nentropy = 1.54\nsamples = 755\nvalue = [313, 274, 168]"] ;
3 -> 4 ;
5 [label="trumptrain <= 0.5\nentropy = 1.54\nsamples = 740\nvalue = [313, 260, 167]"] ;
4 -> 5 ;
6 [label="hard <= 0.5\nentropy = 1.552\nsamples = 684\nvalue = [273, 249, 162]"] ;
5 -> 6 ;
7 [label="new <= 0.5\nentropy = 1.545\nsamples = 675\nvalue = [273, 248, 154]"] ;
6 -> 7 ;
8 [label="sick <= 0.5\nentropy = 1.542\nsamples = 658\nvalue = [273, 236, 149]"] ;
7 -> 8 ;
9 [label="evil <= 0.5\nentropy = 1.537\nsamples = 652\nvalue = [273, 236, 143]"] ;
8 -> 9 ;
10 [label="dangerous <= 0.5\nentropy = 1.53\nsamples = 646\nvalue = [273, 236, 137]"] ;
9 -> 10 ;
11 [label="bad <= 0.5\nentropy = 1.523\nsamples = 640\nvalue = [273, 236, 131]"] ;
10 -> 11 ;
12 [label="shooting <= 0.5\nentropy = 1.516\nsamples = 634\nvalue = [273, 236, 125]"] ;
11 -> 12 ;
13 [label="pathetic <= 0.5\nentropy = 1.521\nsamples = 624\nvalue = [263, 236, 125]"] ;
12 -> 13 ;
14 [label="potus time <= 0.5\nentropy = 1.514\nsamples = 619\nvalue = [263, 236, 120]"] ;
13 -> 14 ;
15 [label="love <= 0.5\nentropy = 1.517\nsamples = 611\nvalue = [255, 236, 120]"] ;
14 -> 15 ;
16 [label="sure <= 0.5\nentropy = 1.519\nsamples = 604\nvalue = [255, 229, 120]"] ;
15 -> 16 ;
17 [label="criminal <= 0.5\nentropy = 1.52\nsamples = 597\nvalue = [255, 222, 120]"] ;
16 -> 17 ;
18 [label="jail <= 0.5\nentropy = 1.515\nsamples = 593\nvalue = [255, 222, 116]"] ;
17 -> 18 ;
19 [label="trump <= 0.5\nentropy = 1.509\nsamples = 589\nvalue = [255, 222, 112]"] ;
18 -> 19 ;
20 [label="deep <= 0.5\nentropy = 1.536\nsamples = 484\nvalue = [199, 180, 105]"] ;
19 -> 20 ;
21 [label="hate <= 0.5\nentropy = 1.541\nsamples = 475\nvalue = [190, 180, 105]"] ;
20 -> 21 ;
22 [label="wrong <= 0.5\nentropy = 1.535\nsamples = 471\nvalue = [190, 180, 101]"] ;
21 -> 22 ;
23 [label="ill <= 0.5\nentropy = 1.529\nsamples = 467\nvalue = [190, 180, 97]"] ;
22 -> 23 ;
24 [label="u <= 0.5\nentropy = 1.522\nsamples = 463\nvalue = [190, 180, 93]"] ;
23 -> 24 ;
25 [label="entropy = 1.515\nsamples = 455\nvalue = [187, 180, 88]"] ;
24 -> 25 ;
26 [label="entropy = 0.954\nsamples = 8\nvalue = [3, 0, 5]"] ;
24 -> 26 ;
27 [label="entropy = 0.0\nsamples = 4\nvalue = [0, 0, 4]"] ;
23 -> 27 ;
28 [label="entropy = 0.0\nsamples = 4\nvalue = [0, 0, 4]"] ;
22 -> 28 ;
29 [label="entropy = 0.0\nsamples = 4\nvalue = [0, 0, 4]"] ;
21 -> 29 ;
30 [label="entropy = 0.0\nsamples = 9\nvalue = [9, 0, 0]"] ;
20 -> 30 ;
31 [label="says <= 0.5\nentropy = 1.273\nsamples = 105\nvalue = [56, 42, 7]"] ;
19 -> 31 ;
32 [label="trump donaldtrump <= 0.5\nentropy = 1.211\nsamples = 98\nvalue = [56, 37, 5]"] ;
31 -> 32 ;
33 [label="wethepeople usa <= 0.5\nentropy = 1.235\nsamples = 92\nvalue = [50, 37, 5]"] ;
32 -> 33 ;
34 [label="obama <= 0.5\nentropy = 1.253\nsamples = 87\nvalue = [45, 37, 5]"] ;
33 -> 34 ;
35 [label="president <= 0.5\nentropy = 1.184\nsamples = 82\nvalue = [43, 36, 3]"] ;
34 -> 35 ;
36 [label="entropy = 1.212\nsamples = 70\nvalue = [33, 34, 3]"] ;
35 -> 36 ;
37 [label="entropy = 0.65\nsamples = 12\nvalue = [10, 2, 0]"] ;
35 -> 37 ;
38 [label="credit <= 0.5\nentropy = 1.522\nsamples = 5\nvalue = [2, 1, 2]"] ;
34 -> 38 ;
39 [label="entropy = 1.585\nsamples = 3\nvalue = [1, 1, 1]"] ;
38 -> 39 ;
40 [label="entropy = 1.0\nsamples = 2\nvalue = [1, 0, 1]"] ;
38 -> 40 ;
41 [label="entropy = 0.0\nsamples = 5\nvalue = [5, 0, 0]"] ;
33 -> 41 ;
42 [label="entropy = 0.0\nsamples = 6\nvalue = [6, 0, 0]"] ;
32 -> 42 ;
43 [label="donald trump <= 0.5\nentropy = 0.863\nsamples = 7\nvalue = [0, 5, 2]"] ;
31 -> 43 ;
44 [label="entropy = 0.918\nsamples = 3\nvalue = [0, 1, 2]"] ;
43 -> 44 ;
45 [label="entropy = 0.0\nsamples = 4\nvalue = [0, 4, 0]"] ;
43 -> 45 ;
46 [label="entropy = 0.0\nsamples = 4\nvalue = [0, 0, 4]"] ;
18 -> 46 ;
47 [label="entropy = 0.0\nsamples = 4\nvalue = [0, 0, 4]"] ;
17 -> 47 ;
48 [label="entropy = 0.0\nsamples = 7\nvalue = [0, 7, 0]"] ;
16 -> 48 ;
49 [label="entropy = 0.0\nsamples = 7\nvalue = [0, 7, 0]"] ;
15 -> 49 ;
50 [label="entropy = 0.0\nsamples = 8\nvalue = [8, 0, 0]"] ;
14 -> 50 ;
51 [label="entropy = 0.0\nsamples = 5\nvalue = [0, 0, 5]"] ;
13 -> 51 ;
52 [label="entropy = 0.0\nsamples = 10\nvalue = [10, 0, 0]"] ;
12 -> 52 ;
53 [label="entropy = 0.0\nsamples = 6\nvalue = [0, 0, 6]"] ;
11 -> 53 ;
54 [label="entropy = 0.0\nsamples = 6\nvalue = [0, 0, 6]"] ;
10 -> 54 ;
55 [label="entropy = 0.0\nsamples = 6\nvalue = [0, 0, 6]"] ;
9 -> 55 ;
56 [label="entropy = 0.0\nsamples = 6\nvalue = [0, 0, 6]"] ;
8 -> 56 ;
57 [label="obamas <= 0.5\nentropy = 0.874\nsamples = 17\nvalue = [0, 12, 5]"] ;
7 -> 57 ;
58 [label="qanon <= 0.5\nentropy = 0.722\nsamples = 15\nvalue = [0, 12, 3]"] ;
57 -> 58 ;
59 [label="york times <= 0.5\nentropy = 0.845\nsamples = 11\nvalue = [0, 8, 3]"] ;
58 -> 59 ;
60 [label="entropy = 0.764\nsamples = 9\nvalue = [0, 7, 2]"] ;
59 -> 60 ;
61 [label="entropy = 1.0\nsamples = 2\nvalue = [0, 1, 1]"] ;
59 -> 61 ;
62 [label="entropy = 0.0\nsamples = 4\nvalue = [0, 4, 0]"] ;
58 -> 62 ;
63 [label="entropy = 0.0\nsamples = 2\nvalue = [0, 0, 2]"] ;
57 -> 63 ;
64 [label="qanon <= 0.5\nentropy = 0.503\nsamples = 9\nvalue = [0, 1, 8]"] ;
6 -> 64 ;
65 [label="entropy = 0.0\nsamples = 7\nvalue = [0, 0, 7]"] ;
64 -> 65 ;
66 [label="entropy = 1.0\nsamples = 2\nvalue = [0, 1, 1]"] ;
64 -> 66 ;
67 [label="trumptrain maga <= 0.5\nentropy = 1.119\nsamples = 56\nvalue = [40, 11, 5]"] ;
5 -> 67 ;
68 [label="support <= 0.5\nentropy = 0.967\nsamples = 52\nvalue = [40, 9, 3]"] ;
67 -> 68 ;
69 [label="gop <= 0.5\nentropy = 0.898\nsamples = 50\nvalue = [40, 7, 3]"] ;
68 -> 69 ;
70 [label="trumptrain rolling <= 0.5\nentropy = 0.785\nsamples = 48\nvalue = [40, 6, 2]"] ;
69 -> 70 ;
71 [label="makeamericagreatagain <= 0.5\nentropy = 0.705\nsamples = 46\nvalue = [39, 6, 1]"] ;
70 -> 71 ;
72 [label="maga trumptrain <= 0.5\nentropy = 0.592\nsamples = 42\nvalue = [36, 6, 0]"] ;
71 -> 72 ;
73 [label="rev trumptrain <= 0.5\nentropy = 0.661\nsamples = 35\nvalue = [29, 6, 0]"] ;
72 -> 73 ;
74 [label="trump <= 0.5\nentropy = 0.75\nsamples = 28\nvalue = [22, 6, 0]"] ;
73 -> 74 ;
75 [label="maga pjnet <= 0.5\nentropy = 0.828\nsamples = 23\nvalue = [17, 6, 0]"] ;
74 -> 75 ;
76 [label="follow <= 0.5\nentropy = 0.881\nsamples = 20\nvalue = [14, 6, 0]"] ;
75 -> 76 ;
77 [label="magaveteran trumptrain <= 0.5\nentropy = 0.937\nsamples = 17\nvalue = [11, 6, 0]"] ;
76 -> 77 ;
78 [label="poll <= 0.5\nentropy = 0.971\nsamples = 15\nvalue = [9, 6, 0]"] ;
77 -> 78 ;
79 [label="maga <= 0.5\nentropy = 0.996\nsamples = 13\nvalue = [7, 6, 0]"] ;
78 -> 79 ;
80 [label="lets <= 0.5\nentropy = 0.946\nsamples = 11\nvalue = [7, 4, 0]"] ;
79 -> 80 ;
81 [label="trumptrain trumptrain <= 0.5\nentropy = 0.918\nsamples = 9\nvalue = [6, 3, 0]"] ;
80 -> 81 ;
82 [label="entropy = 0.863\nsamples = 7\nvalue = [5, 2, 0]"] ;
81 -> 82 ;
83 [label="entropy = 1.0\nsamples = 2\nvalue = [1, 1, 0]"] ;
81 -> 83 ;
84 [label="entropy = 1.0\nsamples = 2\nvalue = [1, 1, 0]"] ;
80 -> 84 ;
85 [label="entropy = 0.0\nsamples = 2\nvalue = [0, 2, 0]"] ;
79 -> 85 ;
86 [label="entropy = 0.0\nsamples = 2\nvalue = [2, 0, 0]"] ;
78 -> 86 ;
87 [label="entropy = 0.0\nsamples = 2\nvalue = [2, 0, 0]"] ;
77 -> 87 ;
88 [label="entropy = 0.0\nsamples = 3\nvalue = [3, 0, 0]"] ;
76 -> 88 ;
89 [label="entropy = 0.0\nsamples = 3\nvalue = [3, 0, 0]"] ;
75 -> 89 ;
90 [label="entropy = 0.0\nsamples = 5\nvalue = [5, 0, 0]"] ;
74 -> 90 ;
91 [label="entropy = 0.0\nsamples = 7\nvalue = [7, 0, 0]"] ;
73 -> 91 ;
92 [label="entropy = 0.0\nsamples = 7\nvalue = [7, 0, 0]"] ;
72 -> 92 ;
93 [label="maga <= 0.5\nentropy = 0.811\nsamples = 4\nvalue = [3, 0, 1]"] ;
71 -> 93 ;
94 [label="entropy = 1.0\nsamples = 2\nvalue = [1, 0, 1]"] ;
93 -> 94 ;
95 [label="entropy = 0.0\nsamples = 2\nvalue = [2, 0, 0]"] ;
93 -> 95 ;
96 [label="entropy = 1.0\nsamples = 2\nvalue = [1, 0, 1]"] ;
70 -> 96 ;
97 [label="entropy = 1.0\nsamples = 2\nvalue = [0, 1, 1]"] ;
69 -> 97 ;
98 [label="entropy = 0.0\nsamples = 2\nvalue = [0, 2, 0]"] ;
68 -> 98 ;
99 [label="doing <= 0.5\nentropy = 1.0\nsamples = 4\nvalue = [0, 2, 2]"] ;
67 -> 99 ;
100 [label="entropy = 1.0\nsamples = 2\nvalue = [0, 1, 1]"] ;
99 -> 100 ;
101 [label="entropy = 1.0\nsamples = 2\nvalue = [0, 1, 1]"] ;
99 -> 101 ;
102 [label="grainsoftruth live <= 0.5\nentropy = 0.353\nsamples = 15\nvalue = [0, 14, 1]"] ;
4 -> 102 ;
103 [label="maga <= 0.5\nentropy = 0.439\nsamples = 11\nvalue = [0, 10, 1]"] ;
102 -> 103 ;
104 [label="providing live <= 0.5\nentropy = 0.592\nsamples = 7\nvalue = [0, 6, 1]"] ;
103 -> 104 ;
105 [label="news <= 0.5\nentropy = 0.722\nsamples = 5\nvalue = [0, 4, 1]"] ;
104 -> 105 ;
106 [label="entropy = 0.918\nsamples = 3\nvalue = [0, 2, 1]"] ;
105 -> 106 ;
107 [label="entropy = 0.0\nsamples = 2\nvalue = [0, 2, 0]"] ;
105 -> 107 ;
108 [label="entropy = 0.0\nsamples = 2\nvalue = [0, 2, 0]"] ;
104 -> 108 ;
109 [label="entropy = 0.0\nsamples = 4\nvalue = [0, 4, 0]"] ;
103 -> 109 ;
110 [label="entropy = 0.0\nsamples = 4\nvalue = [0, 4, 0]"] ;
102 -> 110 ;
111 [label="maxine waters <= 0.5\nentropy = 0.439\nsamples = 11\nvalue = [0, 1, 10]"] ;
3 -> 111 ;
112 [label="entropy = 0.0\nsamples = 9\nvalue = [0, 0, 9]"] ;
111 -> 112 ;
113 [label="entropy = 1.0\nsamples = 2\nvalue = [0, 1, 1]"] ;
111 -> 113 ;
114 [label="rate <= 0.5\nentropy = 0.439\nsamples = 11\nvalue = [0, 1, 10]"] ;
2 -> 114 ;
115 [label="buildthatwall <= 0.5\nentropy = 0.592\nsamples = 7\nvalue = [0, 1, 6]"] ;
114 -> 115 ;
116 [label="entropy = 0.811\nsamples = 4\nvalue = [0, 1, 3]"] ;
115 -> 116 ;
117 [label="entropy = 0.0\nsamples = 3\nvalue = [0, 0, 3]"] ;
115 -> 117 ;
118 [label="entropy = 0.0\nsamples = 4\nvalue = [0, 0, 4]"] ;
114 -> 118 ;
119 [label="entropy = 0.0\nsamples = 12\nvalue = [0, 12, 0]"] ;
1 -> 119 ;
120 [label="entropy = 0.0\nsamples = 20\nvalue = [0, 20, 0]"] ;
0 -> 120 [labeldistance=2.5, labelangle=-45, headlabel="False"] ;
}
